4260 100
</s> 0.004003 0.004419 -0.003830 -0.003278 0.001367 0.003021 0.000941 0.000211 -0.003604 0.002218 -0.004356 0.001250 -0.000751 -0.000957 -0.003316 -0.001882 0.002579 0.003025 0.002969 0.001597 0.001545 -0.003803 -0.004096 0.004970 0.003801 0.003090 -0.000604 0.004016 -0.000495 0.000735 -0.000149 -0.002983 0.001312 -0.001337 -0.003825 0.004754 0.004379 -0.001095 -0.000226 0.000509 -0.003638 -0.004007 0.004555 0.000063 -0.002582 -0.003042 -0.003076 0.001697 0.000201 0.001331 -0.004214 -0.003808 -0.000130 0.001144 0.002550 -0.003170 0.004080 0.000927 0.001120 -0.000608 0.002986 -0.002288 -0.002097 0.002158 -0.000753 0.001031 0.001805 -0.004089 -0.001983 0.002914 0.004232 0.003932 -0.003047 -0.002108 -0.000909 0.002001 -0.003788 0.002998 0.002788 -0.001599 -0.001552 -0.002238 0.004229 0.003912 -0.001180 0.004215 0.004820 0.001815 0.004983 -0.003111 -0.001532 -0.002107 -0.002907 0.002815 0.001579 0.000425 -0.002194 0.001524 0.003059 0.000194
the 0.355794 -0.907664 0.212462 -0.302820 -0.239826 -0.698087 0.308271 -0.400411 -0.579726 -0.841532 0.320897 -0.279159 -1.114453 -0.582115 0.230789 -0.163220 -0.234387 -0.619789 1.085020 0.227584 0.132095 -0.221058 0.372152 -1.102311 -0.262916 -0.249321 -0.380963 0.219714 -0.628078 0.175364 -0.218497 -0.883358 -0.605954 0.035306 0.125706 0.835880 0.289699 -0.618617 -1.060949 -0.701921 -0.238659 0.451836 1.014422 -0.135427 0.301432 0.650576 -0.427224 -0.462663 -0.474330 0.185183 -0.554365 0.096067 0.783602 0.184501 -0.809211 -0.206032 0.228073 -0.408552 -0.494581 0.089440 -0.343577 -0.053350 0.495339 -1.194574 -0.404407 0.405636 0.373384 -0.354847 0.360709 0.429526 0.393870 -0.598394 0.178219 0.402685 -0.484425 0.918540 -0.213230 -0.762700 0.374308 0.443055 -0.141713 -0.469625 -0.679898 -0.352399 -0.253271 -0.256888 0.353022 1.138657 0.342411 -0.014402 -0.009276 0.610476 -0.315678 -1.052294 0.071777 0.740572 -0.590740 0.317437 0.106945 -0.675412
#mention 0.300262 -0.502326 0.962675 0.296752 0.270711 -0.195728 -0.178547 -0.335438 -0.447736 1.072004 0.621939 0.221345 -0.227245 0.406900 -0.095269 0.912189 0.428877 0.948086 0.198282 -0.041969 0.271027 -0.036377 0.070679 0.584023 0.223946 -0.486675 0.569650 -0.096514 -0.394928 0.535103 0.045074 0.263464 -0.203407 -0.283128 -0.312395 -0.294707 0.875875 -0.905820 0.070212 -0.118792 -1.207844 -0.079167 0.453029 -0.598329 0.605378 1.049793 -0.802897 0.489102 0.130846 -0.347341 -0.612280 0.067007 -0.307536 0.532652 0.532186 -0.317736 0.019482 -0.368193 0.263069 -0.280268 0.171185 -0.476219 -0.316052 0.024325 0.235898 0.247271 1.207598 -0.338731 0.412258 0.284653 -1.066219 -0.522377 -0.057710 0.596849 -0.861241 -0.578704 -1.003028 -0.080451 -0.400148 -0.357303 -0.118984 0.432210 0.940754 -0.128290 0.832569 0.332316 0.259424 -0.544816 1.333141 -0.163630 -0.687806 0.745632 -0.397212 -0.548333 0.502602 -0.886912 0.289607 -0.012059 -0.416595 0.292224
rt -0.085325 -0.142568 0.363677 -0.019818 0.659288 0.649021 -0.718389 -0.989733 0.214106 0.146895 -0.056088 1.125181 -0.088649 -0.554920 -0.180566 0.852734 1.196332 -0.057193 0.520518 -0.173338 0.097051 0.742622 -0.026868 -0.693395 -0.407511 0.050785 0.467916 0.668516 0.183418 -0.482842 -0.321755 -0.100362 -1.244335 1.495882 -0.747758 0.032789 -0.453216 -0.454869 0.906755 -0.625323 -0.076947 0.401217 -0.876785 0.775721 0.828436 0.654890 -0.632544 0.386218 0.279748 -0.792970 0.504975 -0.973138 -0.539782 -0.181868 0.007568 -0.509457 -0.068247 0.547955 -1.006344 -1.053954 -0.589606 -0.050112 0.678126 -0.024791 1.554358 0.344744 0.549451 -0.251018 0.572288 0.016699 0.721643 0.899050 0.433024 -0.430796 -0.577432 -0.503777 -0.523910 0.115425 -0.792974 -1.258057 0.751624 1.103600 0.185677 -0.426191 0.164326 1.915360 -0.553652 -0.042636 0.950798 0.035844 -0.308289 0.628578 -0.039085 0.886046 1.228586 0.795229 -0.266412 0.208535 -0.044321 -0.347456
a 0.312227 0.317165 -0.880646 0.669696 0.389366 -0.050671 -0.273054 0.427131 -0.679570 -1.042218 0.598632 0.597568 -0.571644 0.198197 0.169400 0.398700 -0.659883 -0.126808 0.766211 1.319710 0.248466 0.536423 0.136477 -0.598360 0.116284 -0.998114 -0.553166 -0.149472 0.331230 -0.519970 -0.227794 -0.466639 0.050733 -0.148183 0.566411 0.258011 -0.338423 0.061547 -0.119150 0.154659 -0.868263 0.223549 -0.264571 -0.027903 0.456241 0.019474 0.104708 -0.761535 0.214008 0.091811 -0.299285 0.576789 0.991606 0.407938 -1.246953 -0.439783 0.053487 -0.379753 -0.261134 -0.408394 -0.304400 -0.244076 -0.373342 -0.824510 -0.747575 0.150265 0.748499 0.412160 1.243266 1.011554 0.156227 -0.396943 0.627052 -0.004698 -1.143899 1.232176 -0.342624 -0.237475 0.312561 0.581013 0.189909 0.171098 -0.715320 -1.522086 0.112136 0.261836 -0.093717 0.456641 0.424822 -0.351666 0.128634 0.468392 -0.934271 -0.628869 -0.271885 1.215678 0.698797 0.436346 -0.213950 -1.336584
to 0.329114 -0.039322 -0.022250 -0.456521 0.191667 -0.389404 0.672909 0.410928 -0.419683 -0.104505 -0.120268 0.177308 5.171715 -0.817541 0.315993 -0.195126 0.260184 0.085714 0.377985 0.150041 0.689609 -0.310008 -0.138633 -1.112862 0.558698 -0.025455 -0.033462 -0.141248 -0.071362 0.300976 -0.530372 -0.290490 0.018118 -0.127511 -0.529626 0.121939 0.434980 -0.240172 -0.277322 -0.531457 -0.339608 0.318795 0.433514 -0.761328 -0.154252 0.960666 -0.203301 -0.154357 -0.691056 -0.398979 -0.927738 0.285397 0.413937 -0.471974 -0.404725 -0.485768 0.466343 0.085885 -0.304227 -0.070174 -0.081471 -0.459179 0.808481 -0.448043 -0.346013 -0.175534 0.173482 -0.302257 -0.005735 0.371131 0.053280 -0.575139 0.502839 -0.019654 -0.725899 0.210725 -0.730103 0.010920 -0.349736 -0.036625 0.187436 0.065371 0.013651 -1.025558 -0.931198 0.304611 0.244255 0.281132 0.769611 0.820541 0.563779 0.255342 -0.333097 -0.098438 0.199111 0.318846 -0.176681 0.851399 -0.675876 -0.691585
i 1.622322 0.278070 -0.094379 -0.077635 0.675826 0.111574 -0.253033 1.113235 0.398843 1.270531 -0.213149 1.010780 1.578305 0.254385 0.883960 0.183510 -0.334757 -0.111125 -0.639199 -0.129582 0.331037 -0.953128 -1.087615 -1.662597 -0.429829 -0.188635 -0.606642 0.121554 0.184498 -0.593533 0.688293 0.104164 -0.824320 1.168876 0.866943 0.096832 0.975556 1.148703 1.634764 0.279687 -0.418685 -0.704218 -0.113360 -1.139938 0.327744 0.740964 -1.838618 -0.420219 0.359059 -0.217249 0.559991 0.169853 1.255722 -0.276643 0.329687 0.409692 0.145553 0.482994 -0.472474 -0.800927 -1.321861 0.123005 -1.104574 -1.309975 -0.723853 1.083392 0.915154 -1.382073 -0.611325 0.450614 1.723082 0.750573 0.489989 0.260982 -1.736827 0.771615 0.208115 0.460320 0.179413 1.601884 -0.524935 -0.873870 0.797101 -0.919001 -1.312453 -0.098251 -1.001475 -0.523614 2.031126 1.414547 -0.151955 0.051511 0.279158 -0.055867 -0.648317 0.322922 0.402465 0.069467 -0.129981 -1.705075
and 0.337214 -0.138544 -0.330848 -0.481953 -0.625275 -0.666579 0.152327 0.655891 -0.296566 -0.518347 -0.337568 0.066532 0.643428 -0.755941 0.406652 -0.156298 -0.501061 -0.236447 0.509127 1.080983 0.119043 -0.002283 0.002744 -1.291421 0.067818 -0.356361 -0.088411 -0.546132 0.413026 0.516720 -0.184423 0.287418 -0.171390 0.234547 -0.299421 -0.115125 0.782616 0.488465 -0.098258 -0.100468 0.058035 -0.005597 0.237797 0.653936 0.101869 0.591020 0.006600 -0.153315 -0.704506 0.316619 -0.475768 0.300715 0.479690 -0.427906 -0.494042 -0.020127 0.154971 -0.247683 0.270145 -0.055978 -0.538008 0.085076 0.254873 -0.505173 -0.806273 -0.214942 -0.309377 -0.522988 0.442186 -0.214879 0.050528 -0.414221 0.059855 0.146309 -0.439126 0.977684 0.157700 -0.221194 0.335445 -0.413659 -0.358541 -0.554346 -1.112132 -0.709115 -0.678632 0.389822 0.379641 0.546922 0.348342 0.321186 0.280008 0.188069 0.044245 -0.309636 0.414896 0.809755 -0.321115 0.443180 -0.526860 0.010694
#mention: 0.877829 -0.408745 0.892838 -1.158016 1.563994 -0.423235 -0.141641 -0.588610 -0.446683 0.761001 0.271889 0.242505 0.021380 0.816161 0.145713 0.348624 0.100109 0.526110 0.220511 0.554730 -0.626223 -0.084919 0.048140 -0.353740 0.143924 -0.214760 0.047114 -0.980384 -0.204634 0.475792 0.214822 0.245931 -0.215957 -1.131586 0.038123 0.420791 0.742326 -1.284562 -0.804767 0.167054 -1.057060 0.189708 -0.172245 -1.000974 0.579671 -0.953492 -0.498914 -0.053532 0.195317 -0.198586 0.014709 -0.479403 0.088276 -1.124706 -0.148971 -0.372917 0.831142 0.208109 0.707614 1.190551 0.437232 -0.123022 0.012469 -0.987618 0.412335 -0.301408 1.057812 -0.139541 0.248374 0.519712 0.245286 -1.067441 0.735708 -0.919563 -0.668059 -0.270480 -0.426501 1.202907 -0.513184 -0.399312 -0.186870 -0.794921 2.030214 -0.034751 -0.559123 0.818627 0.952698 0.818571 0.992898 -0.238410 0.154639 -0.529085 -0.212906 -0.106591 0.185102 -0.232302 0.983816 0.486993 -0.299900 0.506154
of 0.045614 -0.138697 -0.232095 0.239678 -0.322489 -0.311867 1.019590 0.858938 -0.127407 -0.182057 -0.186498 -0.085243 -1.040309 -0.556080 0.573732 -0.282249 -0.556064 -0.192011 0.302800 1.197396 -1.028612 0.245227 -0.005315 -2.027503 0.209083 -0.223328 -0.519888 0.152420 -0.008863 0.880056 -0.512247 -0.002080 0.107056 -0.108496 0.331141 0.414424 0.296108 0.431013 -0.562072 -0.833550 0.920698 0.632843 -0.505427 -0.355831 -0.622302 0.442625 -0.215879 -0.478597 -0.461090 0.238764 -0.139420 -0.264005 0.097004 -0.633030 -1.244594 0.025607 0.916871 -0.622612 -0.182208 1.121919 -1.110522 -0.124506 1.070272 -1.101940 -0.487037 -0.002767 -0.544492 -0.722612 0.134763 0.261712 -0.576923 -0.578895 -0.866950 -0.914794 -0.500947 1.878269 -0.266243 0.264588 0.030083 -1.758956 0.045410 -1.344401 0.514817 -0.238003 -0.525747 1.212642 0.972353 1.670282 -0.300585 0.554147 -0.422224 -0.019631 -0.378716 -0.353663 -0.618086 0.813977 -0.179557 1.378926 -0.942258 -0.168426
you 1.058456 -0.883436 0.078693 -0.481141 1.171563 0.447495 -0.095236 0.000608 -0.383744 1.044572 0.089748 0.263227 1.361043 -0.118700 1.048109 0.493840 0.388036 0.316354 -1.022547 0.322833 0.188971 -0.550654 -1.195619 -0.761532 -0.524344 -0.107757 0.065029 -0.008044 0.325869 0.432797 -0.420665 -0.096263 -1.470395 0.208799 0.017975 0.316830 0.711359 0.279465 1.055990 0.961570 -1.137654 -0.126145 0.874690 -0.750972 -0.522107 1.058675 -1.221319 0.981876 -0.299511 0.854532 0.655975 -0.762522 0.711943 0.700769 0.184041 0.107426 -0.076169 0.018002 -0.362461 0.092494 -0.055621 -0.350717 -0.573869 -0.557388 -0.705704 -0.220705 0.675180 -0.433097 0.329832 -0.283341 0.651202 -0.434928 0.779017 -0.446924 -1.772196 0.768901 -1.023055 0.029467 -0.522759 -0.406132 -0.008494 -0.086717 0.700127 -0.190530 0.232239 0.848934 -0.891233 -0.093324 1.877671 0.520169 0.034207 0.138856 0.605247 -0.187025 -0.642454 0.789561 -1.047271 -0.207573 1.250752 -0.240834
in 0.131651 -0.090215 -0.263462 -0.888492 -0.053086 -0.453107 0.407272 0.321474 -0.208410 -0.227453 -0.176225 -0.035836 -0.544662 -0.945141 0.319489 -0.271027 -0.117864 -0.044255 0.386628 0.365677 0.193417 -0.335612 -0.229901 -1.303202 0.389402 -0.156947 -0.206919 -0.284972 -0.397760 0.618187 -0.138850 -0.097731 0.002148 -0.002872 -0.069655 0.352793 0.300149 0.227208 -0.316354 -0.384869 0.735806 0.387648 -0.108618 0.179396 -0.281934 0.722469 0.125770 -0.620399 -0.657599 -0.201878 -0.471050 0.231339 0.411527 -0.471250 -0.530646 -0.053377 0.517591 0.485095 -0.203446 0.157542 -0.740002 -0.239089 0.854659 -0.809780 -0.076262 0.138090 -0.379306 -0.254353 0.171441 0.244570 -0.112356 -0.155011 -0.284778 -0.260010 -0.391361 0.923904 -0.081564 0.048285 0.042478 -0.658344 -0.074955 -0.363181 -0.233095 -0.499643 -0.103281 0.616738 0.847305 0.425729 0.006218 0.685073 0.396276 0.111328 0.010603 -0.035089 0.226634 0.194278 -0.239207 0.225300 -0.663435 -0.476331
is 0.067075 0.272245 0.622559 0.053303 0.040203 -0.172096 1.082164 -0.373740 0.474922 0.664956 -0.795525 0.381503 -0.564579 -1.153475 -0.390296 -0.922105 0.381110 -1.443956 -0.488017 -0.434886 0.346563 0.139096 0.309695 -1.009267 0.127454 -0.323869 0.339898 0.434058 0.135164 0.258813 -0.568683 -0.376070 0.550494 -0.622355 -0.148338 0.390233 -0.310938 -0.902324 0.920407 -0.503622 0.467939 0.737136 -0.630197 -1.415212 -0.469364 -0.102704 0.992048 0.158678 -0.487453 -0.989569 -0.360757 -0.386080 0.226323 -0.480766 -0.224068 -0.122986 0.525308 -0.277224 0.444406 -0.147070 1.102354 -0.348143 0.950086 -0.268793 0.185471 -0.040035 -0.352130 0.190497 -0.481971 0.200668 -0.455742 0.311022 -0.287000 -0.473187 0.318940 -0.123465 -1.258841 0.601553 -0.419899 -0.219999 0.204921 0.164090 0.137447 -0.662888 -0.864885 -0.352679 0.274674 1.073005 0.353917 0.269017 0.335983 0.231152 -0.373985 1.360339 -0.729178 0.359692 0.057500 0.390175 0.000920 0.499538
my 0.606073 -0.516297 -0.217013 -0.475689 0.200127 0.107895 -1.102786 0.137183 0.004589 -0.670116 0.161634 -0.059668 -1.156645 0.298264 0.383208 0.176123 -1.042177 -0.515045 0.028161 -0.149672 0.428925 0.191472 0.336032 -1.742223 -1.011076 -0.985968 -0.685891 -0.746134 0.072986 -0.508828 -0.374501 -0.713003 -0.574446 0.091825 0.206237 -0.288293 -0.621611 -0.590536 -0.786445 -0.877807 -0.848145 0.046591 0.593897 0.604316 0.349338 -0.515418 -0.010774 -0.028791 -0.822006 -0.476798 -1.145074 0.408921 0.884790 0.308931 0.325332 -0.239125 -0.241553 -0.013227 -0.047888 -0.891871 -0.637206 -0.032862 -0.354483 -0.472728 -0.457750 1.059966 0.724180 0.177780 0.829534 -0.521985 0.824408 -0.483451 0.673814 0.553436 -0.083928 0.706999 1.467543 0.046446 0.479021 1.431852 -0.298832 -0.861872 -0.383071 -0.824914 -0.716827 -0.057970 -0.209531 0.175896 0.391542 -0.135625 0.180959 0.159482 0.834361 -0.599294 0.350154 0.337153 0.007575 0.048133 0.690579 -1.060005
for 0.301597 0.317237 0.413807 -0.465000 -0.020115 -0.474867 0.703756 0.828529 -0.626414 -0.028311 0.254915 0.312727 1.316247 -0.709269 0.195601 0.502254 -0.001253 0.716266 0.495006 -0.062095 -0.107331 0.331135 0.325968 -0.559503 0.539933 0.568250 -0.115026 0.445193 -0.566475 0.393091 0.027531 -0.087472 0.410881 -0.273037 -0.790358 0.106646 0.317090 -0.273337 -0.310387 -0.378855 0.186618 0.421161 -0.215291 -0.586155 -0.011910 0.837968 -0.121928 0.573937 -0.233358 -0.715030 -0.572282 -0.493761 -0.107881 -0.424439 -0.553403 -0.112885 0.327832 0.029346 0.507022 0.252502 0.244710 -0.762487 0.806858 -0.063964 -0.600496 -0.164126 0.007721 -0.373265 -0.239529 0.187820 -0.580325 -0.236382 -0.424281 -0.368115 -0.217959 0.260058 -0.970462 0.520582 -0.585239 -1.319643 0.366818 -0.132723 0.698091 -0.548268 0.508271 0.514153 1.019161 0.384755 0.666451 0.473005 0.522306 0.089291 -0.347450 0.129119 0.077677 0.057761 0.070513 0.801664 -0.801418 -0.084737
on -0.038823 0.345167 -0.190212 -0.703412 -0.361124 -0.567597 0.457026 0.573533 -0.104936 0.433101 -0.242419 0.090333 0.419772 -0.770319 0.083316 -0.057076 -0.245835 0.196671 0.286002 0.132011 0.140058 -0.199132 -0.187348 -1.142498 0.021576 -0.222802 0.004660 -0.110004 -0.092346 0.696232 -0.044697 0.179902 0.519080 -0.027101 -0.630844 -0.217464 0.434391 0.187505 -0.070144 -0.339745 0.345454 0.024759 0.029539 -0.334158 -0.114337 0.693768 0.192771 0.046724 -0.615908 -0.164929 -0.469694 0.053938 0.102731 -0.223704 -0.025718 0.135695 0.038776 0.302070 0.330843 0.153775 -0.228293 -0.261744 0.620775 -0.515906 -0.551819 0.153366 -0.207681 -0.530113 0.187493 -0.142481 -0.436320 -0.110980 -0.236038 -0.213363 -0.196261 0.280030 0.017912 0.194472 -0.064338 -0.889883 -0.076765 -0.278528 0.037766 -0.447321 -0.007056 0.042260 0.729070 0.066328 0.331459 0.491354 0.437012 -0.043233 0.178780 -0.018088 0.189240 -0.209646 -0.439604 0.348506 -0.569737 -0.202062
at -0.287728 0.303583 -0.131791 -1.759778 -0.527603 -0.960525 1.073343 0.402037 -0.455163 0.317835 0.786958 0.026989 0.381257 -1.196104 -0.292161 -0.043354 -0.262761 0.532590 0.895781 0.223048 0.351349 -0.408645 0.385054 -0.237957 0.960966 -0.165868 -0.150374 0.075244 -0.348471 1.286402 0.704888 -0.012864 0.263925 0.169150 -0.657090 0.131551 0.278045 0.674814 -0.315070 -0.156319 1.026729 0.001609 0.441803 -0.544092 0.207951 1.141472 0.302184 -0.785788 -0.344958 -0.655390 0.029246 -0.638077 0.319870 0.070818 -0.807508 -0.005019 0.261486 0.440000 0.310788 0.381019 -0.485154 -0.164854 0.600825 -0.833650 0.178055 -0.153907 -0.252694 -0.607594 0.485703 0.299427 -0.753705 0.338655 -0.245223 -0.198390 -0.023756 0.171322 0.028484 -0.131946 -0.006373 -1.020998 -0.568657 -0.617703 -0.338097 0.162789 0.163870 0.384099 1.637912 -0.374610 0.017147 0.221799 0.249178 0.556694 -0.039359 -0.100737 0.849789 -0.605689 0.423520 0.406968 -1.426427 0.017284
#drunk 1.232343 0.132124 -0.219577 -0.397765 -0.664537 -0.288481 1.027139 1.927814 -0.176096 0.320868 0.508283 0.029178 -0.407642 -0.533473 0.861137 0.133620 -0.568176 0.145087 -0.061360 -0.429255 0.768560 -0.647071 0.033520 -0.897278 0.284749 -0.201778 -0.272341 0.036754 0.198910 0.694752 0.172103 -0.195161 -0.309179 -0.615346 -0.691832 -0.665874 0.400196 0.593364 0.474534 0.042020 -0.305722 -0.242013 0.825153 -0.894021 0.012744 0.816819 -0.078610 -0.461260 -0.771950 -0.133093 -0.245801 -0.036379 0.226125 0.203666 0.571346 0.210838 -0.177112 0.470345 0.708880 -0.738756 -0.011516 -0.322335 -0.665009 -0.534201 -0.829051 0.467544 -0.626633 -0.171377 -0.079593 -0.519835 0.022854 -0.122224 0.294899 0.484688 -0.690525 -0.136652 0.523088 -0.635994 -0.028741 0.806131 -0.976399 -0.590658 0.432391 -0.444998 -0.949600 -0.408468 -0.311257 -0.422652 0.219604 0.729674 0.284980 -0.193202 0.239806 -0.203534 -0.762976 -0.328712 0.165112 -0.234320 -0.185360 -0.555120
with 0.138835 0.168198 -0.149508 0.032650 -0.902740 -0.395211 0.509655 0.659123 -0.153919 0.545464 0.130304 0.019506 0.733804 -1.256920 0.315294 0.321581 -0.611228 0.107681 -0.109877 0.182090 -0.188145 0.223201 -0.020843 -1.290682 0.183114 0.361714 0.156439 -0.165320 -0.005545 0.556468 -0.429119 0.246933 0.316108 0.087871 -0.592809 -0.362154 0.189709 0.120197 -0.300710 -0.394923 0.458824 0.323725 -0.106828 -0.474180 -0.566868 0.553248 0.016545 0.281669 -0.772655 0.070219 -0.416080 -0.019572 -0.073812 -0.047832 -0.395375 0.075338 0.020105 -0.257158 0.586449 -0.120993 -0.221120 -0.116838 0.422226 0.194950 -0.585692 0.602925 -0.242201 -0.213358 0.538170 0.088231 -0.609665 -0.068260 -0.597689 -0.391885 -0.077157 0.640326 -0.102648 0.242013 0.161416 -1.233569 0.453375 -0.291395 -0.028667 -0.778521 -0.057234 0.026693 0.638590 0.308612 0.170584 0.219159 0.357875 -0.060647 -0.419873 -0.234702 0.417481 0.831900 -0.595411 0.345073 -0.091931 -0.114411
this 0.755348 -0.282805 0.384424 -0.394571 0.595294 -0.095034 0.070660 0.059368 -0.525209 -0.697156 0.798804 0.217261 -0.203890 -0.237529 0.095380 0.575873 0.144267 0.393010 1.021775 -0.294880 -0.021086 0.286780 0.450501 -0.429787 0.152245 -0.674690 -0.520658 -0.186299 -0.304724 -0.085449 -0.164614 -0.137933 -0.351685 -0.250872 0.096798 0.373291 -0.520150 -0.626165 -0.588109 -0.458295 -0.844733 0.189690 0.362245 -0.147876 0.710079 0.084842 -0.637787 -0.511944 0.360772 -0.727750 -0.513143 0.120517 0.429400 -0.028446 -0.076816 -0.950113 -0.280669 0.087472 0.065451 -0.257640 -0.069947 -0.386270 0.222859 -0.248479 0.469621 0.752238 0.347329 -0.149467 0.652459 0.331516 0.229674 -0.282569 0.606128 0.069835 -0.598657 0.036227 0.193668 0.048691 0.048193 0.524748 0.301615 -0.133510 0.331956 -0.387719 0.565587 0.256173 0.142641 0.333668 0.565472 0.078499 -0.150700 0.313181 -0.317998 -0.725020 0.188245 -0.233341 0.385140 0.642569 -0.135513 -1.181215
im 0.014040 0.777839 0.305312 -0.399978 -0.181899 0.004449 1.336129 0.057259 1.040600 1.188425 0.279435 0.547131 -0.791029 -0.873447 -0.486749 -0.097659 -0.328188 -1.034575 -0.743129 -1.036809 0.832893 -0.200550 0.179136 -0.271892 -0.067038 -0.213555 0.221703 0.379672 1.236584 -0.204745 -0.024580 -0.761788 0.009838 0.089477 -0.413277 -0.057869 -0.516791 0.560226 1.361377 0.357469 -0.140028 -0.153744 0.406843 -2.938014 -0.229858 -0.551428 0.579452 0.576297 -0.067640 -0.747138 0.788108 -0.414829 0.402136 -0.242105 0.293096 0.030585 -0.463995 -0.487662 0.183677 -0.957165 0.754133 0.134664 -0.727983 -0.455485 -0.154626 0.534410 0.313241 0.301005 0.442008 0.366555 0.884548 1.262058 1.119268 0.260082 -0.450909 -0.932313 0.459712 -0.293197 0.003969 1.191552 -0.879098 -0.088619 -0.189005 -0.569249 -2.118561 -1.764276 -1.389527 -0.339846 0.276637 -0.491378 0.301676 0.048386 0.230003 1.047014 -0.544852 0.651260 0.553604 -0.108968 1.015165 -0.592801
me 1.127762 -0.580091 -0.094117 -0.513320 0.310444 0.326683 -0.459038 0.639575 -0.135725 0.588724 0.224467 0.034836 0.471397 -0.100226 1.114240 0.397166 -0.699538 -0.099008 -1.077111 -0.291984 0.928655 0.141829 -0.956891 -1.428833 -0.869129 -0.179122 0.080184 -1.057487 0.503001 -0.357884 -0.904834 -0.352139 -0.389949 -0.053359 -0.201209 -0.536749 0.210052 -0.027395 -0.227427 0.029944 -1.129221 -0.406671 0.261082 -0.032652 -0.735286 0.398047 -0.483776 0.811304 -1.371460 0.157970 -0.694300 1.061713 0.415241 0.186230 0.112774 -0.430160 -0.609850 0.173505 -0.091714 -0.591832 -0.124360 0.254539 -0.688098 0.568543 -0.297315 0.787297 0.295568 0.140403 0.802322 -0.115187 0.744038 -0.254107 1.164913 0.122116 -0.883780 0.453000 0.952230 0.144251 0.590145 0.971766 0.235295 0.070063 -0.345513 -1.356013 -0.939788 0.035933 -0.736762 -0.250053 0.842603 -0.146285 0.268819 -0.194878 0.626814 -0.289779 0.174375 0.565947 -0.500035 -0.237558 1.357437 -1.160655
? 0.229124 -0.230017 0.162605 0.000224 -0.184161 -0.204001 -0.087523 0.391626 -0.256915 0.646804 0.436282 -0.190645 0.103952 -0.440093 0.391875 0.152376 -0.227547 -0.116339 -0.165771 -0.192416 0.291683 -0.283192 0.211838 -0.451317 0.247499 -0.238734 0.237023 -0.189776 0.495930 0.231401 -0.293298 0.351401 -0.394037 -0.379232 -0.378024 -1.119944 -0.261446 -0.180707 0.246513 0.038462 -0.472538 -0.022704 0.366209 -0.266919 -0.038187 0.564831 0.420175 0.186438 -0.571188 0.045885 -0.641352 -0.202216 0.023221 0.508071 1.022852 0.114559 -0.381471 -0.089998 1.064288 -0.628804 0.291852 -0.422675 -0.345889 0.358347 -0.527275 0.634995 -0.007007 0.220732 0.377825 -0.251447 -0.455861 -0.224417 0.275870 0.311059 -0.332481 0.278387 -0.120927 -0.258006 -0.220041 -0.133003 -0.201052 -0.308825 -0.390714 -0.288812 0.414027 -0.005653 0.074324 -0.390650 0.664689 0.255388 0.088118 -0.067906 -0.195745 0.093151 -0.013732 -0.248128 -0.188505 -0.225266 0.097098 -0.065428
#url -1.135731 -0.601595 0.267087 -0.510630 -1.438782 -1.107745 1.556871 0.179866 -0.051671 1.255507 0.592564 -0.869930 -1.932126 0.146557 0.409876 1.023878 0.868975 0.612090 0.990211 2.204226 -0.916368 0.305825 0.859699 0.507597 0.101139 -0.001127 0.188875 -0.051003 -0.532449 1.973882 -0.277929 -0.364442 0.165051 -0.404812 -1.038159 0.042325 -0.243761 -0.808074 -0.410354 -0.445512 0.160990 -0.013275 -0.890006 -0.105800 0.146077 0.352094 0.654125 0.206543 -0.291102 -0.097734 0.265979 0.341667 -0.137798 0.966147 -0.169496 -0.123192 0.360071 -1.469383 0.212840 -0.284143 -0.030013 -1.079410 0.563710 -0.262488 -0.169871 -0.238410 0.401826 0.436648 1.344262 1.395696 -0.973001 1.149591 0.097466 0.071399 0.121858 -0.468411 -0.290886 0.113982 -0.831908 -2.259006 -0.309048 0.276837 -0.546090 0.693495 0.882407 1.292624 0.659382 -0.241102 -0.808193 -1.536941 0.312470 1.317065 -0.107473 -0.810869 0.086656 0.189531 -0.325757 0.986898 -0.425750 -0.371947
that 1.034157 -0.452941 0.047709 0.048570 0.287782 0.005996 -0.253082 0.483571 -0.435513 -0.451032 -0.016672 0.410743 -0.979393 -0.717990 0.883396 -0.077767 -0.213467 -0.316116 -0.118695 0.498900 0.158213 -0.171834 -0.394219 -0.960135 -0.025364 -0.472036 -0.310792 -0.414763 0.353035 -0.002848 -0.459929 0.659891 -0.868093 0.309135 0.195777 0.174066 0.847986 0.328097 0.250915 -0.257764 -0.294724 0.238214 0.575128 0.055048 -0.102974 1.071915 -1.149616 -0.394408 -0.479280 0.429288 -0.332251 0.250194 0.614814 -0.245841 -0.353940 -0.142544 -0.096354 0.189284 0.213621 0.048608 -0.274514 0.152252 -0.183942 -0.071638 -0.248488 0.431405 -0.460452 -0.310901 -0.015128 -0.304536 0.197423 -0.885914 0.744084 0.006016 -1.025614 1.080888 -0.277727 -0.427448 0.185700 0.825225 0.216464 -0.298214 -0.327676 -0.767159 -0.489383 0.621536 0.003805 0.746389 1.009201 0.835657 -0.164652 -0.459167 -0.643569 -0.312845 -0.029065 0.676675 -0.281321 0.381938 0.135361 -0.569013
be 0.575033 1.676898 1.132436 -0.046294 1.134351 -0.322608 1.542500 0.197924 0.775168 0.999306 -0.030515 1.392379 -1.622133 -0.917439 0.854371 0.838555 -0.644940 0.839727 -0.200071 -0.606713 0.631606 1.114843 -0.431804 -0.029374 0.058924 0.678798 0.531050 0.276612 -0.111512 0.717707 -0.857405 -1.298657 0.396541 0.079451 -0.394894 1.043266 0.722012 0.967020 0.899362 -0.008674 -0.446076 -0.227339 0.341564 -1.337140 -0.028942 1.628069 -0.933201 1.458589 1.011540 -0.076788 0.475007 0.652495 0.268534 -1.032062 -0.909149 -1.546382 -0.418542 -0.786401 -0.346356 1.204230 1.302465 0.177024 -0.237121 1.245420 -0.389720 -0.588105 1.934549 -0.207337 -0.405506 0.082122 0.725732 0.283435 0.142206 -0.814334 -0.492987 -0.881697 -0.572390 0.043313 0.770663 1.499098 -0.301873 0.006918 0.807878 -0.837221 -0.901761 -0.651586 0.367689 -0.350787 1.504932 -0.410092 -0.288712 0.294699 -0.127693 0.779001 -0.475936 -0.341500 0.420935 1.136489 0.779022 -0.641390
it 1.218970 -0.243331 -0.587798 0.840678 0.205798 -0.004786 -0.391795 1.010155 -0.091287 -0.392552 0.216229 0.628934 -0.744477 -0.078034 0.862248 0.543432 -0.260819 0.218115 -0.311812 0.265602 0.384600 -0.063946 -0.790783 -0.758695 -0.483641 -0.188196 -0.069025 -0.261362 0.149551 -0.277210 -0.549326 0.040122 -0.707449 0.420189 0.072819 0.246367 1.501831 0.103659 0.441559 0.027773 -1.069389 -0.047188 0.949462 -0.919460 -0.030358 1.495495 -1.717075 0.088765 -0.442428 0.716044 -0.297072 0.682643 0.610602 -0.182794 -0.045665 -0.257698 -0.529719 0.147060 -0.287400 -0.178983 -0.279225 0.035978 -0.584867 -0.099559 -0.866609 0.692960 0.195329 -0.357670 0.363947 -0.274372 0.160018 -0.900630 0.844495 0.452743 -1.540422 0.965252 -0.031381 -0.545714 0.107898 0.859626 0.029724 0.114966 0.619475 -1.071237 -0.738512 0.303645 -0.491648 0.332468 1.445657 0.478835 -0.386963 -0.362948 -0.307798 -0.660178 -0.652479 0.375749 -0.745606 0.188513 0.549750 -1.131521
: 0.533240 -1.006957 0.453266 -1.495225 1.144544 0.005243 -0.373424 -0.246968 0.085046 0.700972 -0.190169 0.127282 -0.977044 0.841020 0.166979 -0.285802 -0.025951 -0.154803 -0.131827 1.477304 -0.691992 -0.276834 -0.084932 -0.829651 -0.274096 -0.392166 -0.376578 -1.237786 0.982520 0.058822 0.302853 0.221362 -0.928336 -0.300871 0.775576 -0.253891 0.018190 -0.520353 -0.579536 0.210832 -0.910736 -0.121062 -0.904109 -0.956356 0.366297 -1.878824 -0.086769 -0.671255 0.005552 -0.022647 0.536612 -0.563307 0.164676 -0.823422 -0.274415 -0.103729 0.858772 -0.066236 0.261695 0.593622 0.143751 0.598181 -0.493594 -0.948125 0.165823 -0.201637 0.295280 0.097706 0.101829 0.392022 1.063685 -0.674208 1.522653 -0.962443 -0.297273 -0.221626 0.550110 0.963892 -0.547016 -0.005436 -0.679579 -1.132590 0.773863 -0.032058 -2.285370 0.946379 -0.174153 0.357281 0.167862 -0.560357 0.112363 -0.851989 -0.019688 0.470284 0.406931 0.867370 1.179424 1.162417 0.212755 0.409843
get 0.321074 0.496591 1.267107 -0.607479 0.145049 0.062708 1.017628 0.452754 -0.001628 1.654027 0.764563 0.706810 0.407195 -1.233972 0.638704 0.519684 -1.178735 0.321857 -0.161960 -0.938543 0.883169 0.589862 -0.371525 -0.470316 -0.253231 0.429010 0.500635 -0.277147 0.891464 0.166096 -0.787151 -1.317316 -0.678435 0.072084 0.156864 -0.253644 -0.409045 1.355251 0.364982 0.351424 0.130887 -0.058234 0.386492 -0.488053 -0.815384 1.011942 0.474240 0.732678 -0.495168 -0.064127 0.163858 -0.193703 -0.054917 -0.061045 -0.419688 -0.850262 -0.414041 -0.960190 -0.061680 0.956508 0.388584 0.983572 -0.688527 1.079997 -0.474395 0.757003 1.137591 -0.019750 0.032102 -0.090294 0.435129 -0.025431 0.500617 -0.510276 -0.353700 0.126697 1.167872 -0.677453 1.013678 0.674824 -0.696200 -0.578839 -0.286715 -0.933733 -1.488507 -0.680981 -0.221922 -0.725015 0.340387 -0.574936 -0.298822 -0.102008 -0.159460 0.390182 -0.090220 0.471414 0.297240 0.747248 1.127705 -0.810623
so 1.597273 0.233484 1.068166 -0.628518 0.694468 0.221947 -0.611772 0.870974 -0.391342 0.281843 -0.118789 1.216730 -1.235036 -0.538546 0.526534 0.577580 0.053841 0.154191 0.228366 -0.033431 0.793100 0.104624 -0.375650 -0.638712 0.258595 -0.471508 0.002187 -0.467841 0.616336 -0.305849 0.915459 0.211101 -1.164300 0.084338 -0.498226 -0.398825 0.151203 0.627900 1.112954 0.145589 -0.708533 -0.690974 -0.101892 0.945742 0.489731 0.703097 -0.015350 -0.113517 0.253715 -0.345192 -0.404482 -0.460751 -0.257423 -0.601648 1.140360 0.215539 -0.527801 0.554766 0.935727 -0.037184 -0.580613 -0.702038 -0.438745 -0.062622 -0.280015 0.403641 0.171085 -0.590440 -0.453665 -1.151139 0.773844 -0.407358 0.350236 0.251005 -0.799455 0.013532 0.144798 -0.086193 0.174793 0.561836 -0.695212 -0.311600 -0.135869 -0.869840 0.264384 0.636417 -0.660557 -0.431748 1.058027 1.006253 -0.069229 -0.326433 -0.349676 0.535616 -0.262352 -0.294296 0.288347 0.213376 -0.249123 -0.370274
just 0.973834 0.086215 -0.311674 -0.043285 0.150334 -0.149057 -0.318751 0.716274 0.004184 0.457015 -0.042881 0.704141 0.436569 -0.508441 0.526216 -0.101277 -0.608546 -0.301558 0.044712 0.411365 0.161485 -0.120751 -0.653964 -1.482464 -0.257577 -0.691749 0.005618 -0.780730 0.754097 -0.128056 -0.149675 0.346159 -0.111317 0.052047 0.227587 -0.582130 0.339710 0.421654 0.160456 -0.119314 -0.544661 -0.486353 -0.045962 -0.423920 0.099948 0.091827 -0.296612 -0.398743 -0.177862 0.118054 -0.360013 0.335223 0.104554 -0.590095 -0.162271 -0.090454 -0.053189 0.250246 0.389913 0.021116 -0.137022 0.329110 -0.016726 -0.228520 -0.561033 0.563581 0.138027 -0.274155 0.210601 -0.005414 0.679656 -0.430312 0.444077 -0.082004 -0.824097 0.361137 0.619218 0.020110 0.506605 0.326344 -0.165334 -0.561150 -0.122362 -1.105538 -1.052898 0.289382 -0.231026 0.300156 0.536676 0.497704 -0.101558 -0.528990 -0.379646 -0.154587 0.253274 0.499318 0.025209 0.435550 0.013434 -0.639566
up 0.597447 0.135748 1.053909 -0.099867 1.619031 -1.574440 -0.440996 -0.679403 1.019525 2.335992 -0.941915 -0.677817 -0.160169 -1.196985 0.950922 -0.573507 0.265218 -1.136725 -0.374236 -0.733542 1.235360 -0.308880 -1.500728 -0.789927 0.284126 -1.391922 0.070057 -2.084158 -0.078421 1.049137 -1.665164 -1.912951 -0.244614 -0.755743 0.147744 -0.347418 0.684998 -0.245224 1.587677 -0.374163 -0.006805 -0.343036 0.429550 1.732745 -0.033354 0.674544 1.628677 -0.895111 -0.976668 0.189359 -1.614229 1.512589 1.042064 -1.177792 0.838417 -1.560929 -0.014467 0.257144 0.274730 -0.228295 -0.354940 -0.125560 1.087521 0.716215 0.366266 0.957878 0.924622 1.715920 0.535699 -0.797655 0.216945 0.313924 0.079780 0.223601 -0.012335 0.521008 1.160405 -0.209520 1.179865 1.340945 -0.444082 -0.420920 -1.311851 -0.177629 -0.398098 0.433087 0.325785 -1.462669 -0.431760 0.173125 -0.109637 -0.092027 0.973101 1.292427 -1.091010 -1.877224 -1.086224 -1.400139 0.037977 -1.721354
your 0.145352 -0.871764 -0.079759 0.164924 0.138247 0.000144 -0.059762 -0.239664 -0.353790 -0.901304 0.263212 -0.510636 0.260990 -0.105637 0.814447 0.071077 -0.403558 -0.055686 0.003564 0.921952 0.037055 0.125705 0.493855 -0.502906 -0.568225 -0.163816 -0.054234 -0.332832 -0.083255 0.366397 -1.495414 -0.557364 -1.303275 0.059707 -0.459137 0.325395 0.163789 -0.376977 -0.686404 0.068931 -0.394164 0.974307 1.425135 -0.095932 -0.575592 1.020932 -0.539349 0.668011 -0.958160 0.921986 -0.179282 -0.124942 0.822846 0.648221 0.159579 -0.213112 -0.217895 -1.074431 -0.638700 0.152040 -0.005531 -0.120645 -0.232957 -0.208968 -0.619363 -0.265091 0.253967 0.341753 1.345188 0.018073 -0.138114 -0.641860 1.073395 -0.190122 -0.425103 1.171543 -0.073981 -0.497354 -0.461552 0.296316 0.028893 -0.183194 -0.221482 0.149822 -0.442036 0.484456 -0.027001 0.788389 0.773692 -0.288021 0.252191 0.418940 0.273065 -0.667168 -0.114270 0.911187 -0.867456 0.191314 1.332112 -0.597789
have 0.687283 0.156483 1.072685 -0.389448 0.550070 -0.338409 1.092339 0.628475 -0.446643 1.269985 0.816522 1.290686 -1.124912 -1.317584 0.670506 0.590717 -0.379962 0.408979 -0.313202 -0.282408 0.221892 0.553733 -0.859664 -0.356116 0.424704 1.282121 0.522453 -0.088816 0.242860 0.541204 -0.118017 -0.067239 -0.166335 -0.073091 0.607711 0.548118 0.706404 0.943691 0.543708 0.075016 -0.187645 0.343135 -0.405049 -1.291754 -0.713950 1.409055 -0.274486 0.205208 0.011115 0.280485 0.335664 0.168219 0.052692 -0.595735 -1.800057 -0.714787 0.095010 -0.073423 0.361577 1.249401 0.779532 0.574504 0.194892 0.753764 -0.256740 0.146173 0.674538 0.296278 -0.136906 0.422183 -0.114504 -1.210102 -0.252978 -0.592650 -1.268357 0.788909 -0.964693 -0.470195 0.190152 -0.552394 -0.358524 -0.002511 0.058656 -0.944374 -0.249043 0.053995 0.318625 0.360472 0.711499 -0.478568 -0.687305 -0.258066 -1.349792 0.247464 -0.226912 0.972112 -0.029985 0.396832 0.282636 -0.018179
when 0.563709 -0.790888 0.141206 -0.961104 0.235636 0.321988 -0.781473 -0.090102 -0.482463 -0.372084 -0.053143 0.472128 -0.773469 -1.910693 0.834030 -0.687122 0.155337 -0.441077 -0.159671 0.773531 0.297480 -0.857227 0.042567 -0.692298 0.189368 -0.721479 0.226794 -0.840818 1.870778 0.280820 -0.425548 1.390196 -1.812327 0.799306 -0.168745 -0.894400 0.433188 1.254321 -0.149590 -0.087841 0.564001 -0.116115 0.806505 -0.272490 -0.449641 0.999392 -0.506970 -0.869036 -0.951529 0.367435 -0.219724 -0.348820 -0.122016 0.012277 0.542198 -0.095861 0.004299 0.563068 0.461675 -0.023616 -0.088207 0.875717 -0.166083 0.147488 0.412418 -0.130202 -1.518988 0.055210 0.081298 -0.679623 0.392113 -0.651141 1.522800 -0.323177 -0.412017 0.526701 0.499560 -1.284386 0.188686 0.657831 -0.196493 -0.674431 -1.512112 -0.556969 -1.458699 0.971426 0.204008 0.219450 0.825234 1.180181 -0.318649 -0.957942 -0.805423 0.421642 1.487474 0.580770 -0.090952 0.560031 -0.030219 0.218507
was 0.263791 -0.051649 0.406440 0.279110 -0.361659 -0.625505 -0.152156 -0.467548 0.144523 0.773877 -0.499349 0.449464 -2.578912 -0.747499 -1.393736 -0.163170 -0.737380 -1.212240 -0.909442 -0.827041 1.219521 0.001120 -0.723393 -0.493228 0.050808 -1.167767 -0.012020 -0.085145 -0.012119 -0.905375 0.438613 -1.191587 0.692702 0.184023 1.076100 -0.221977 0.354440 -0.790885 0.895441 -0.789681 0.376535 0.298140 -0.356937 -0.873974 -0.091477 -0.032618 0.232921 -0.547416 -1.052945 -1.378531 -0.784223 -0.855950 0.376556 -0.094799 -0.923981 -0.339810 -0.287184 0.321753 0.106481 -0.738603 -0.585156 1.151493 -0.315437 -0.843520 0.201010 1.601878 0.101061 -0.070089 -0.049460 -0.797585 -1.635450 0.044330 -0.785275 0.021353 -0.079540 0.412691 0.186747 -0.327514 0.392742 0.570009 0.005148 -0.129802 0.530987 -1.827389 -2.369319 -0.696176 0.491649 -0.525872 0.389307 -0.448315 -0.395139 0.091951 -0.043448 1.198982 0.093468 0.263450 0.677567 0.823493 -0.855665 0.269657
are -1.158855 -0.734208 2.118584 0.207268 -0.249431 -0.643484 0.955914 -1.005873 0.110480 1.290774 -0.685467 -0.053389 -1.919627 -1.540731 -0.203429 -0.846477 0.242937 -1.237482 0.432166 -0.309500 0.481317 -0.126368 0.696323 -0.695630 -0.050602 1.018612 0.815155 0.026357 -0.030429 0.507785 -1.540758 -0.447408 -1.192776 -0.282061 -0.627943 0.001582 0.519290 -0.142655 0.744243 -0.549599 1.131274 1.631116 0.007664 -1.527327 -0.839071 1.107798 1.247692 0.727346 -1.038593 0.500301 0.017798 -1.097575 -0.063508 -1.109421 -0.510633 -0.241335 0.650356 -1.476812 0.394744 1.149331 0.942821 1.105350 1.167153 0.515616 0.413386 0.404097 0.247316 0.792975 -0.532542 0.174694 -0.371299 -0.871951 0.315766 -0.525937 0.006191 0.238684 -0.470863 -0.643470 -0.954070 -0.958406 -0.366165 0.221665 -0.775509 0.928451 -1.251144 -0.217470 0.182268 0.649579 -0.157666 -0.491451 -0.178819 -0.252544 -0.585753 1.058205 -0.432122 1.108059 -0.845242 -0.005347 0.876964 1.427592
all 0.194706 -0.454239 0.629897 0.185882 0.609099 -0.225881 -0.219335 -0.051450 -0.821100 0.845147 -0.421854 0.207844 -0.275349 -1.085673 0.389297 0.264858 -0.305428 0.009339 1.140370 -0.095075 0.294990 -0.391758 -0.487839 -1.353968 0.050415 -0.253566 0.053067 -0.762604 -0.208626 0.425298 -0.423160 0.040625 -0.686934 0.168154 0.395917 -0.164319 0.137315 -0.023571 -0.118957 -0.061994 -0.457248 0.201731 0.713031 -0.259665 -0.154722 1.012097 -0.300695 -0.349405 0.060116 0.653852 -0.514512 -0.057976 0.236821 -0.670449 0.103585 -0.449418 0.020841 0.459071 0.172293 0.452904 -0.448470 -0.025853 1.025623 -0.139066 -0.841525 0.827826 0.840417 -0.320228 -0.574708 -0.098681 0.412673 -1.286540 -0.203602 -0.159398 -0.694856 0.878102 0.215356 -0.276591 0.016767 -0.517780 0.474896 -0.601610 -0.212665 -0.557884 0.543075 0.343200 0.062134 -0.069418 0.557916 0.787428 -0.194762 -0.063040 -0.429109 -0.786270 0.210650 -0.009832 -0.768435 0.224049 -0.071226 -0.282505
like 1.139042 0.383518 -0.715621 0.063251 0.180867 -0.088674 -0.606885 0.755333 0.459046 0.447054 0.198452 1.076819 -1.265337 -0.875780 0.405907 -0.098735 -0.206951 -0.482644 -0.562721 0.256929 0.083036 -0.155632 -0.581661 -0.945773 -0.359172 -0.353944 0.162188 -0.524073 1.155268 0.095368 0.075832 0.658420 -0.551324 0.388022 0.029975 -0.637931 0.956801 0.358625 0.478236 0.018054 -0.023140 -0.526875 -0.442806 -1.063271 0.258542 0.228792 -0.434502 -0.755021 -0.441710 0.005128 -0.198835 0.422134 -0.097439 -0.079948 -0.338679 0.096766 -0.035141 0.574146 0.491184 -0.659016 0.301632 0.453574 -0.555264 0.296626 -0.377333 0.320586 -0.889213 0.224177 0.191477 -0.184393 0.390966 -0.181160 0.653810 -0.142886 -0.510693 0.069748 0.555461 -0.175772 0.235552 0.449421 -0.359212 -0.356035 -0.184955 -1.303127 -1.602154 0.410828 -0.042630 0.018175 0.376377 0.013386 -0.585149 -1.062905 -0.567919 0.445768 0.342686 0.613991 0.039468 0.105136 0.092013 -0.281612
we 0.369385 -0.305256 0.829167 0.285174 0.921486 -0.248923 0.649842 -0.067913 -0.166334 1.196154 -0.241126 0.080111 2.049733 0.311333 1.011330 0.411501 0.156667 -0.088112 0.460787 0.249965 -0.195132 -0.854319 -0.600702 -1.175258 0.369265 0.286991 -0.122177 0.161473 -0.982053 0.606703 -0.899783 -0.522782 -1.022238 0.062027 0.239670 0.760465 0.906810 -0.377186 1.654548 0.742908 -0.652694 0.391690 0.841183 -1.073055 0.286955 1.435822 -1.433574 0.693533 0.607365 0.932378 0.379961 -0.608337 1.177800 -0.553775 0.140686 -0.168916 0.691956 -0.547834 -0.092279 0.575958 -0.478350 -0.791379 0.217321 -0.743466 -0.774027 -0.093436 1.762437 -0.875944 -0.656473 0.645336 1.032489 -0.181506 0.214307 -0.068407 -1.561494 0.868827 -1.376493 0.780859 -0.824132 -0.632702 0.313864 -0.271993 1.020334 0.649781 0.846041 0.927603 -0.039062 0.183271 1.943004 1.069473 -0.205643 0.573417 0.597501 -0.640870 -1.213176 0.252877 -0.907731 -0.498449 0.504085 -0.350032
&amp; -0.100453 -0.071112 0.395959 -0.875936 -1.061582 -0.865690 0.562824 0.149456 -0.623148 0.604090 0.425163 -0.580781 0.887408 -0.050733 0.400683 1.005933 0.060083 0.627806 0.567552 1.331735 -0.238826 0.372814 0.231538 -0.107425 0.095753 -0.454630 0.023865 -0.271250 -0.151458 1.334854 0.276785 0.286203 0.017103 -0.415611 -0.371372 -0.389602 0.300237 -0.563652 -0.768402 0.000812 -0.274307 -0.322170 -0.136561 0.235058 0.587707 0.459290 0.069464 0.181879 -0.295591 0.158734 -0.119488 0.033281 0.142411 0.771575 -0.310089 -0.339865 0.118657 -1.028342 0.483413 0.042193 -0.375131 -0.401558 -0.352981 -0.046497 -0.205466 0.003212 0.414068 -0.537962 1.109137 0.265927 -1.043146 0.349335 -0.191436 0.108607 0.047354 -0.077934 -0.095196 0.491860 -0.092999 -0.889937 -0.152617 -0.048864 -0.221295 0.059066 0.845858 0.681273 0.389868 -0.213606 0.227776 -0.715889 0.007051 0.598636 -0.045790 -1.149419 0.642789 0.295815 -0.053721 0.560463 -0.345531 -0.035990
if 0.808804 -0.456023 0.694014 -0.150366 0.733609 0.177559 -1.008251 -0.303687 -0.499672 0.095474 0.321442 0.780944 0.769857 -0.817530 1.311307 -0.005598 -0.004561 -0.101905 -0.635742 1.469958 -0.135464 -0.267412 -0.325345 0.037529 0.336499 -0.069206 0.444943 -1.286159 1.448292 0.004062 -0.764651 1.630974 -1.686637 0.802986 0.391769 -0.593685 0.730999 0.963099 -0.140705 0.342924 0.279123 0.006589 -0.153904 0.335776 -0.366997 0.986902 -1.270275 -0.267312 -0.539233 0.652476 -0.005977 0.245164 0.085286 0.010631 0.206553 -0.370319 0.056018 -0.078782 0.264166 0.372054 -0.077871 0.738629 -0.989822 0.587690 0.749847 -0.207843 -0.519369 0.149028 0.561875 0.225980 0.258292 -0.180720 1.663256 -0.900440 -0.814400 0.791782 -0.266570 -0.268740 0.158763 0.542373 0.490659 -0.013880 -0.767430 -0.714332 -0.827933 1.670709 0.419364 0.254288 1.642327 0.546518 -0.516016 -0.764957 -1.465658 0.630127 1.786448 0.997731 0.581538 0.381953 0.076281 -0.329823
not 1.001348 0.275807 0.343805 -0.339207 0.687523 0.302682 0.776690 0.667583 0.014045 -0.059410 0.384842 1.132774 -0.817735 -1.159943 0.609164 0.291978 0.276338 0.010600 0.144205 -0.182217 0.255771 -0.188641 -0.076031 -0.751738 0.666306 0.141442 0.327506 0.440226 1.439148 0.234877 -0.080661 0.584216 -0.882143 0.128523 -0.610191 -0.098480 0.345604 0.785130 0.977463 0.262268 -0.337825 -0.355207 0.268649 -2.188021 0.335305 0.799006 -0.733219 -0.494656 0.583860 -0.110856 0.582871 -0.015352 -0.266052 -0.083796 -0.063329 -0.416531 0.044682 0.194392 0.112609 0.021716 0.280117 -0.077088 -0.217992 -0.127144 0.276271 -0.481619 -0.424618 -0.102904 0.205960 0.161827 0.941656 -0.139072 0.883891 -0.029194 -1.277142 -0.385601 -0.623111 -0.856874 -0.257317 0.725394 -0.395044 -0.117589 -0.058779 -0.500365 -0.416980 0.028200 -1.023059 0.162542 0.831783 0.592188 -0.539317 -0.465031 -0.818487 0.067307 -0.357578 0.606580 0.112530 0.091317 0.270387 -0.235993
drunk 0.943722 -0.256112 0.273658 -0.098608 -0.497311 0.296839 1.001465 1.303690 -0.449669 0.348891 0.871171 -0.067870 -0.392161 -0.819558 0.678561 0.180535 -1.302305 -0.668260 0.088795 -0.420795 0.938813 -1.234696 0.267424 -1.112000 0.401097 -0.273528 -0.123950 -0.626294 0.947349 0.352978 -0.189670 -0.015020 -1.028029 -0.435730 -0.962837 -0.742972 0.233829 0.992607 0.650964 0.434621 -0.619683 -0.153971 1.366563 -1.571706 -0.300656 0.462551 -0.316580 -0.348683 -0.690052 0.281875 0.380875 -0.318857 -0.126730 -0.338225 0.970614 0.436384 -0.453705 0.348647 0.768473 -0.677613 -0.491974 0.470910 -1.079302 -1.117128 -0.106718 0.946657 -0.421768 -0.350484 0.462105 -0.341621 0.988075 -0.008802 1.148130 0.184517 -1.291199 -0.117006 1.004817 -1.078920 0.146388 0.716159 -0.708018 -0.606376 0.159576 -0.051677 -1.166224 -0.789960 -1.161382 -0.249315 0.663022 0.547268 0.431005 -0.189620 -0.036669 -0.341747 -0.395848 0.433532 0.012639 -1.074551 0.544464 -0.497127
but 1.028070 0.036880 0.217371 -0.771495 0.404262 -0.204413 0.541558 0.908526 -0.226396 0.102219 0.037441 0.977850 -0.660272 -0.888430 0.600685 -0.370555 -0.062936 -0.143146 0.004710 0.407414 0.392407 -0.277575 -0.338486 -0.741205 -0.147171 -0.052889 0.060699 -0.163980 0.931193 0.381781 0.421476 0.772991 -0.470108 0.248455 0.383905 0.155933 0.891444 1.046270 0.415357 0.297409 -0.383338 -0.316109 0.509846 -0.893660 0.069046 1.134461 -0.741527 -0.487820 -0.145788 0.309413 0.192963 -0.040492 0.493730 -0.253418 -0.682571 -0.197255 -0.023719 0.340959 0.539203 0.417008 0.609864 0.239782 -0.495621 -0.423376 -0.710929 -0.244614 -0.298331 -0.487312 -0.448296 -0.167367 0.598523 -0.800849 0.791756 -0.059823 -1.065554 0.294011 -0.468615 -0.474136 -0.065665 1.098172 -0.586221 -0.322432 -0.404002 -0.759262 -0.995751 -0.048343 -0.252317 0.402214 1.345077 0.444625 -0.157866 -0.576728 -0.610193 0.118031 0.126477 0.530555 0.231755 0.389646 0.147446 -0.016199
its -0.000254 0.523948 0.113081 0.696475 1.005157 -0.474188 0.684097 -0.067111 0.167176 0.870244 0.358985 0.724913 -1.728865 -0.996322 -0.153296 0.209267 0.572175 -0.992779 0.122709 -0.665810 -0.262999 -0.148569 -0.203106 -0.312095 0.357924 -0.056214 -0.144541 0.322786 0.203718 0.117068 -0.390233 0.143807 -0.073394 -0.160770 0.312252 0.354698 -0.095895 0.086231 1.339960 0.122996 0.079798 0.629677 -0.015591 -2.036601 0.155893 -0.207845 0.132193 -0.667247 0.299113 -0.456931 0.102746 -0.200864 0.427292 -0.458955 -0.217061 -0.269959 -0.063341 0.269573 0.470428 -0.542587 0.647977 -0.051234 0.617603 -0.231359 -0.020991 0.240757 0.048728 0.837145 0.101256 0.469626 0.280120 -0.043165 0.262253 -0.276985 -0.925930 0.186548 -0.515338 -0.241919 -0.449045 0.462678 0.138628 -0.152653 -0.121355 -0.448625 -0.353036 -0.559081 -0.308573 -0.054435 0.216450 0.111928 -0.135100 -0.159309 -0.795536 0.903197 -1.010616 0.287492 0.075913 -0.379031 -0.009057 -0.847627
out -0.149221 -0.498097 -0.045913 -0.346917 0.845662 -0.211051 0.713264 0.301085 -0.147620 0.265468 0.059556 -0.558465 1.426352 -0.766100 -0.017482 -0.583511 -0.972755 -0.249405 0.189438 0.030186 1.088379 -0.329079 -0.083872 -1.597969 0.089846 0.131241 0.039740 -1.039327 -0.162989 0.695675 -0.765820 -1.251915 -0.230460 -0.276889 -0.442243 0.427750 0.307083 -0.147473 -0.212716 -0.316250 0.001463 0.648687 0.075232 0.018006 -0.630985 0.344074 0.697183 -0.793647 -1.229201 0.095803 -0.786843 0.821444 0.143418 -0.309557 -0.243975 -0.099632 0.760249 0.174385 -0.768298 0.108018 -0.629192 0.013667 0.552221 -0.758170 -0.222320 0.395252 0.754632 0.244662 0.685304 0.321347 0.246993 -1.027678 -0.181716 -0.079011 -0.791542 0.919973 -0.087373 -0.584507 -0.005354 -0.714138 -0.904035 -0.647204 -0.580462 -0.724800 -0.945223 0.042851 0.124627 0.006504 0.196338 -0.222109 0.623033 0.755862 0.197808 0.133806 -0.598892 0.368890 -0.091540 -0.413468 -0.200425 -0.072215
will -0.427672 0.258627 -0.414504 -0.612432 -0.160375 -1.620917 0.063846 -1.042141 -0.349734 -0.981129 -0.227604 0.481177 1.604192 -2.077316 -0.475317 0.187764 1.302509 -0.021006 0.298765 0.220627 1.641276 0.568298 0.204515 -0.121086 0.765150 0.726804 1.650787 0.143857 0.037585 0.068289 0.289125 -0.897872 -0.450391 -0.900016 -1.132896 0.271066 2.176560 -1.246647 -0.864029 -0.456581 0.611448 0.421115 0.326400 -1.370348 0.293124 1.983838 0.824046 0.814147 -1.720414 0.042133 -0.758322 0.583458 0.365616 -1.864936 -0.652805 -1.763302 0.998059 0.142267 -1.129388 0.559363 0.079059 0.235718 1.671982 -1.014103 1.453966 -0.818125 0.014225 0.805776 1.303202 1.217344 -0.817293 0.105825 0.103587 0.604941 -1.081680 1.008104 -0.776136 -0.349728 -0.080957 -1.092800 -0.872497 1.316933 -0.298410 -0.743413 -0.553959 0.382418 1.101882 1.640486 0.658738 -0.426622 -0.146240 0.266705 -0.762926 0.363999 0.575962 0.526871 -0.583076 -0.656520 -1.382001 0.000154
from -0.260872 0.056842 -0.118978 -0.714525 -0.299165 -0.626947 0.487512 0.123678 -0.214370 -0.080279 -0.026748 -0.327771 -0.374259 -0.506203 -0.052525 -0.041464 -0.417965 0.115484 0.383954 0.671218 -0.110877 0.047042 0.158105 -0.855597 0.092825 -0.062182 -0.225042 -0.214901 -0.402772 0.696973 -0.102210 -0.225227 0.291233 0.064856 -0.704914 0.118515 0.337459 -0.075384 -0.590467 -0.517072 0.761842 0.379523 -0.422508 0.456588 -0.088494 0.334975 0.314199 -0.139677 -0.828607 -0.408004 -0.315485 -0.360575 -0.046261 -0.141450 -0.669752 0.096378 0.402836 -0.045099 0.157506 0.127286 -0.535195 -0.131676 0.613326 -0.604556 0.035466 -0.077120 -0.241660 -0.491441 0.516843 -0.006855 -0.652311 0.067461 -0.381982 -0.551607 0.043506 0.424171 -0.163692 0.383982 -0.194420 -1.524315 -0.068697 -0.434673 0.112950 -0.186332 -0.209921 0.764721 1.278020 0.234875 0.065430 -0.171709 0.457257 0.338534 0.294465 0.178011 0.217481 0.064616 -0.011880 0.596525 -0.846584 0.272841
now 0.235567 0.353718 -0.519723 -0.418679 -0.008604 -0.022300 -0.489390 0.532140 0.237210 -0.418061 0.016385 0.828760 -1.892451 -0.098357 0.508703 0.272572 0.608558 0.803011 0.400184 -0.085122 1.130705 0.541704 -0.024385 -0.589575 0.323216 -0.126845 0.496612 -0.461789 0.453750 0.228412 -0.436461 -0.770823 -0.497539 -0.121336 -1.481479 -0.756525 0.962116 0.228493 -0.333340 -0.246480 -0.762843 -0.665294 0.471007 -0.406854 0.467290 1.100149 0.175002 0.723665 -0.315664 -0.366824 -0.992981 0.889526 -0.659675 -1.269275 0.788716 -0.471674 -0.045998 0.679574 -0.944068 0.137255 -0.009416 -0.446726 1.249094 0.203790 -0.295802 -1.203796 0.051438 0.058760 0.351881 -0.613798 0.412423 -0.142586 0.761621 0.425209 -0.170213 -0.493746 1.264754 -0.442257 0.500822 -0.128944 -1.150651 0.034566 0.316721 -0.676182 -1.229105 1.031812 0.392327 0.192927 -0.112369 0.618842 0.177858 0.242622 0.247878 0.224053 0.360845 -1.264016 -0.481896 0.646282 -1.165538 -0.715182
- -0.829716 -0.305718 0.463523 -0.452453 -0.814996 -0.921090 0.768374 0.224553 0.018027 0.614214 -0.127972 0.004825 -1.459365 -0.020436 -0.188538 0.520835 0.403825 0.552885 0.997647 2.026908 -0.646313 0.025490 0.492550 0.673397 0.228212 0.118609 -0.032627 0.194833 -0.400454 0.865223 0.439943 -0.152530 0.188616 -0.117888 -0.622076 0.111089 0.268523 -0.118845 0.137495 -0.027197 0.241625 -0.085230 -0.875801 -0.559446 0.383366 0.305771 0.253864 0.480435 0.254010 -0.090659 0.709331 -0.547973 -0.000953 0.026129 -0.322549 0.345958 0.222272 -1.072649 0.135505 0.001537 0.099488 -0.661329 0.286851 -0.841688 -0.241403 -0.405004 0.234240 -0.115444 0.449506 0.973774 -0.226205 1.053904 0.153783 -0.261546 -0.223243 -0.438570 -0.772020 0.264515 -0.734870 -2.367202 -0.504517 0.449223 -0.296467 0.593497 0.427328 0.829523 0.524854 -0.037966 0.038766 -1.043241 0.257215 0.663278 -0.139237 -0.071068 0.219930 0.265770 0.257333 1.125227 -0.815526 0.268100
can -0.121075 -0.815783 0.790262 -0.883979 -0.911355 -0.743514 -0.340682 -0.277055 -0.656139 -0.089216 -0.211484 0.266208 2.552054 -1.496979 -0.260704 -0.072019 0.517686 -0.837341 -0.508518 0.608611 1.280510 -0.175169 0.111144 -0.386778 0.310045 0.555136 0.896622 -0.612296 0.641710 -0.575558 0.315248 -0.006138 -1.201334 -0.631535 0.255416 -0.712056 1.094905 -0.484618 0.013131 0.074965 -0.119068 0.059518 -0.012965 -1.489608 -0.275808 0.871914 0.937755 0.994850 -1.552951 0.448051 -0.158705 -0.521263 0.418093 -0.999093 -0.459470 -0.759071 0.411671 -0.678248 0.326090 0.436123 0.054465 0.987092 0.152986 -0.396868 0.765585 0.672990 -0.188968 0.347147 0.884026 0.484596 -0.477139 -0.191904 0.740756 0.334090 -0.696877 1.334127 -0.100900 -0.104354 -0.244892 -0.956684 -0.677467 0.957410 -0.823036 -0.167634 -0.850542 0.265653 -0.132049 0.992634 0.746266 -0.241310 -0.367309 -0.372592 -0.918346 0.495031 0.821515 1.598602 -0.548235 -0.185098 -0.017546 0.527906
?? 0.306535 0.123274 0.175963 -0.156883 -0.350253 -0.310970 0.105125 0.412093 -0.043504 0.683181 0.317398 -0.178184 0.419811 -0.469692 0.260109 0.436610 -0.444085 -0.032272 -0.024438 -0.261334 0.269929 -0.221310 0.106008 -0.425699 0.111120 -0.549879 0.032388 -0.294927 0.403169 0.212538 -0.179845 0.004580 -0.121196 -0.133934 -0.337730 -0.823900 -0.261341 0.002442 0.124217 -0.124263 -0.216517 -0.184548 0.471889 -0.240743 0.005363 0.366899 0.135635 0.049281 -0.465962 -0.168152 -0.507541 -0.071687 0.181406 0.264052 0.875592 -0.128819 -0.423707 -0.115898 0.907722 -0.699727 -0.067413 -0.229704 -0.394113 0.162596 -0.366411 0.994898 0.228561 -0.014869 0.333175 -0.234986 -0.302304 0.185059 0.345698 0.223274 -0.083028 -0.105921 0.534186 -0.057857 0.259079 0.580655 0.021253 -0.423242 -0.135450 -0.544309 -0.145774 -0.315816 0.103107 -0.799564 0.546481 0.238404 0.128458 -0.123774 -0.054011 -0.024328 0.137666 -0.305684 0.079466 0.128761 0.191183 -0.636012
party 0.132657 0.114391 0.288229 -0.054571 -0.189656 -0.633715 1.352937 0.423402 -0.026609 1.608625 1.411779 -0.351468 0.960914 -0.658188 0.285734 0.519182 -0.615469 0.482214 -0.126295 -0.840946 0.305381 -0.569651 -0.507348 -0.162386 1.082012 0.529664 -0.089334 -0.352227 -0.295447 0.696572 -0.219015 -0.480242 0.389377 0.068169 0.077489 -0.135351 -0.405909 0.188370 0.388475 0.001826 -0.532665 -0.094292 0.826199 -1.055251 -0.874333 0.991620 -0.658318 -0.229900 -0.260246 -0.365310 -0.010885 0.191061 0.327087 0.311770 -0.201611 -0.453730 -0.396686 0.198874 0.482973 -0.168766 -0.383919 -0.456322 -0.018202 0.182774 0.124742 1.128676 0.944072 -0.154802 0.379717 0.621905 -0.219137 -0.241582 -0.051817 -0.018470 -0.851118 0.102366 -0.148010 -0.057807 0.336434 -0.030078 0.221916 -0.455032 0.383686 -0.135152 0.232549 -0.081428 0.264751 -1.193353 0.522802 -0.028822 -0.159856 0.489894 -0.431802 -0.500435 0.161542 -0.477271 0.175442 -0.164549 0.038417 -0.852865
what 1.222913 -0.635339 0.085763 0.502648 1.109259 0.311432 -0.946934 -0.129567 -0.350629 -0.066636 -0.006979 1.350089 -0.953552 -0.631568 0.461492 0.514198 1.060452 0.121117 0.254010 0.136547 0.038452 0.184137 -0.608576 -0.480073 -0.107483 -0.361533 0.533502 -0.139450 0.901140 -0.096568 -0.419143 1.049946 -1.435948 0.455308 -0.287085 -0.300477 0.982816 -0.530463 0.710519 0.063631 -1.268434 -0.036663 0.457908 -0.685397 0.684966 1.370029 -1.589955 0.146593 0.245875 0.227979 -0.055326 -0.118196 -0.369454 -0.250510 0.167834 -0.442190 -0.485420 0.647376 -0.144820 0.155619 0.814639 -0.188132 0.330228 0.596843 -0.132397 -0.044142 -0.153538 -0.239533 -0.090302 -0.353919 0.376849 -1.113856 0.921124 0.127698 -1.539325 0.000172 -0.944394 -0.530455 -0.593715 0.063976 0.424812 0.552527 0.413773 -0.694424 -0.071236 1.119076 -0.468600 0.618849 1.417688 0.498827 -0.634242 -0.580021 -1.139933 -0.297053 0.483310 0.460673 -0.752389 0.566086 0.371024 -0.070419
or 0.487469 0.401889 -0.652526 -0.096565 0.029016 0.033245 0.723202 0.837028 0.248591 -0.175165 -0.067181 0.470719 0.437618 -1.118663 1.045140 0.122922 0.030551 0.121253 -0.724245 0.992641 0.065213 0.379573 -0.175412 -0.827895 0.220181 0.221353 0.269965 0.378582 1.248778 0.597858 -0.552575 0.567541 -0.523493 -0.098583 -0.438245 -0.196353 0.615163 0.918759 0.416148 0.336829 0.319581 0.075270 -0.279366 -0.799574 -0.280299 0.907043 -0.117464 0.148661 -0.379305 0.637643 0.246956 0.352221 0.455010 0.338297 -0.534889 -0.432566 0.326986 -0.830543 0.013881 -0.091231 0.542820 -0.184696 -0.612780 0.415213 -0.632547 -0.844289 -0.682692 0.481323 0.534814 0.524853 -0.094493 0.047204 0.529790 -0.181480 -0.824586 0.533069 -0.934678 -0.226125 -0.274545 0.206038 -0.501453 -0.009940 -0.707267 -0.938966 -0.610476 0.129009 -0.501243 0.576320 0.316747 -0.001939 0.108671 -0.425439 -0.557445 0.035790 -0.471901 1.557554 -0.015254 0.419117 0.488246 -0.284400
dont 0.441581 -0.969393 0.209131 -0.546544 0.840943 -0.342420 -1.147038 -0.456276 -0.309592 1.178815 -0.483724 0.502892 2.109423 -1.414661 0.634104 -0.199216 0.920169 -0.473495 -1.038044 0.064076 0.868669 -0.269951 -0.865214 -1.026391 -0.568009 -0.457269 0.379978 -0.536830 1.499777 0.119323 0.057533 0.333962 -1.919863 0.022902 0.912516 -1.128924 0.540684 0.315398 0.672665 0.075255 -0.370201 -0.198386 0.028195 -1.163241 -0.028247 0.480031 0.267261 0.019623 -1.252318 0.344372 -0.151407 -0.433995 0.504677 0.328406 0.262890 -0.861619 0.147368 -0.229656 -0.262423 -0.335781 -0.048601 0.965766 -0.190602 0.224534 0.427233 0.462878 0.005616 0.790021 0.221508 -0.294138 0.495687 -0.453539 0.745504 0.095342 -1.145841 0.941054 0.193686 -0.414561 -0.157452 0.356627 -0.940166 -0.164777 -1.270367 -0.357709 -1.093243 0.509175 -1.229439 -0.061453 0.558296 0.091147 -0.663487 -0.297023 0.152987 0.380570 0.458111 1.190251 -0.562529 -0.194972 0.377681 -0.120984
as 1.412168 1.824796 0.961243 -0.082464 -0.356109 -0.395509 1.565850 0.442867 -0.484276 -1.287054 -0.841449 1.548505 -1.735059 -0.814196 0.317055 0.745969 -0.072015 -0.611727 0.495671 1.266825 0.474326 0.859750 -0.613000 -0.463984 1.578252 -0.757456 0.595455 0.253432 0.392944 0.226637 0.028891 -0.134505 -1.094330 -0.658859 -0.923978 0.327668 0.677709 0.598785 1.503969 0.885258 0.690073 -0.099157 -0.335178 0.926222 1.253219 0.856430 0.058298 -0.816052 0.219026 -0.189220 0.126212 -0.452925 -0.087007 -1.046793 -0.661305 -0.370979 -0.240627 -1.092231 0.035204 0.746976 -1.098551 0.095496 -0.886450 -0.932977 0.519411 -1.832730 -1.069955 -1.016634 0.415475 -1.358379 -0.540400 1.110904 -0.380205 -0.794162 -1.007394 -0.206934 -1.014618 -0.092956 0.029873 1.054206 -0.530291 0.228569 0.553322 -0.853548 -1.190269 0.320208 -0.625406 0.371906 0.615857 0.525121 0.452390 -0.301897 -1.060846 0.585374 -1.338679 1.183732 0.200661 0.825565 -0.753960 -0.791216
by -0.580767 -0.033321 -0.397275 0.061437 -1.452590 -0.813214 0.493039 0.671648 -0.094467 0.439930 0.032944 -0.032657 -0.497159 -0.200653 -0.073511 0.453783 0.101040 0.490019 0.573562 2.151078 -0.481424 -0.137243 -0.084215 0.121815 0.122001 -0.102175 -0.034042 0.040973 -0.079012 0.659755 0.737117 0.332076 0.499898 -0.168459 -0.486647 -0.412897 0.740622 0.043926 -0.154623 -0.118200 0.412993 -0.246195 -0.971785 -0.811484 0.171569 0.636197 0.011051 -0.020933 -0.136137 0.046720 0.422305 -0.019803 -0.264348 0.091573 -0.071934 0.723089 0.286188 -0.696973 -0.138730 -0.387453 -0.426978 -0.607223 0.083339 -1.042918 -0.731575 -0.024557 -0.414737 -0.162981 0.783726 0.959207 -0.768090 0.751462 -0.567047 0.177787 -0.355720 0.168814 -0.341506 0.139413 -0.637095 -2.099368 -0.373431 0.313649 -0.191613 -0.142206 0.182689 0.717066 0.160827 0.162223 -0.105559 -0.607368 0.186532 0.379685 -0.586955 -0.747012 0.363226 0.524443 0.034444 0.856740 -1.235463 -0.173550
about 0.591706 -0.475860 0.509708 -0.640254 0.404110 -0.249957 -0.036410 0.115536 0.084602 0.336988 -0.873006 0.299332 -0.464561 -0.688413 0.351426 -0.854705 1.067161 -0.591606 0.285868 -0.066753 0.040381 -0.407111 -0.184965 -1.435887 -0.591060 0.027825 0.249026 -0.008513 0.119101 0.142753 -0.502439 0.648956 -0.550653 0.172291 -0.215773 -0.254391 1.145872 -0.617756 0.172289 -0.446457 0.002074 0.040623 -0.069225 -1.026673 0.461885 0.637355 -0.573788 -0.187272 -0.478253 0.198776 -0.439108 -0.603272 -0.072869 -0.720888 -0.361559 -0.259002 0.573549 0.450576 0.474551 0.542595 0.742123 0.365285 1.122247 -0.358339 -0.001310 -0.190742 -0.943122 -0.353585 -0.628570 -0.431136 0.185603 -0.430346 0.780892 -0.547409 -0.046971 -0.229552 -0.358989 0.383987 -0.772574 -0.573306 0.291077 0.016674 0.275750 -0.012865 -0.986745 0.675897 0.314882 0.618464 0.894807 0.666321 -0.280370 -1.147440 -0.011529 0.690700 -0.083780 0.060008 -1.185432 0.453539 0.033201 0.381633
. 0.168375 -0.093609 0.001264 -0.367853 -0.041011 -0.101945 0.106341 0.243744 -0.083311 1.017943 -0.281425 -0.404932 -0.182923 -0.322648 0.983969 0.484729 0.269590 0.235805 -0.211869 1.132343 -0.269846 -0.086884 -0.283097 -0.741041 -0.134918 -0.068928 0.005433 -0.519442 0.570561 0.725376 -0.346641 0.536181 -0.435185 -0.098791 0.145775 -0.716718 0.130477 -0.086882 -0.007589 0.251613 -0.562999 -0.257524 -0.334130 -0.369326 0.113275 0.058753 0.114815 -0.028869 -0.031036 0.776251 0.135210 0.316444 0.234254 0.357174 -0.087434 -0.246030 0.261387 -0.460407 0.639671 -0.314116 -0.000079 -0.200893 -0.171377 0.463788 -0.276674 0.095351 0.115833 0.105459 0.407019 0.270469 0.063871 -0.030787 0.479516 -0.249518 -0.287342 -0.060575 -0.117012 0.395871 -0.223339 -0.247045 0.068892 -0.159559 -0.263621 -0.193046 0.019629 0.540527 -0.512752 -0.528027 0.221271 0.023096 -0.054106 -0.548966 -0.236483 -0.230864 0.105797 0.619245 -0.415646 0.070652 0.582454 -0.183404
our -0.217148 -0.973780 1.187529 -0.581255 0.395871 -1.180166 0.045507 -0.795878 -0.654289 0.053182 0.209774 -0.425246 -0.197279 0.336462 -0.123451 1.002635 0.287669 0.548812 1.848414 0.630308 -0.471163 0.726965 0.451021 -0.670198 -0.041287 0.040100 -0.010017 -0.417557 -1.581178 0.605387 -0.882219 -0.917516 -0.317596 -0.519777 -0.376710 0.672949 0.160175 -2.187919 -1.143023 -0.703952 -0.956552 0.890313 0.161259 0.810587 0.999033 0.484323 0.020780 0.355181 0.011551 0.103842 -0.791582 -0.063091 0.340909 -0.374380 -0.936666 -1.090694 0.477594 -0.882822 -0.031262 0.753398 -0.176976 -0.705354 1.535395 -0.099910 0.084959 0.286177 1.802209 -0.166541 0.715137 0.651664 -0.400429 -1.083425 -0.180417 0.042756 -0.240495 0.527956 -0.521068 0.653794 -0.557713 -1.525275 0.419864 -0.056586 0.335571 0.323100 1.231945 1.113970 1.107195 0.526767 0.225305 -0.916124 -0.120532 0.763783 0.032864 -1.230523 0.051303 0.001281 -0.659351 0.657402 -0.094477 -0.108279
an 0.558273 -0.021108 -0.708600 0.387964 0.055435 -0.274584 0.192667 0.651721 -0.098756 -1.318541 0.181842 0.328705 -0.859309 0.019610 0.266210 0.362855 -0.325146 0.034903 0.646637 1.435633 -0.129977 0.579809 0.189963 -0.689522 0.190802 -0.780081 -0.343316 -0.404824 0.411272 0.117264 -0.423261 -0.085356 0.101691 -0.280325 -0.261205 0.212741 0.074894 -0.312482 -0.510185 -0.162302 -0.475715 0.106154 -0.185313 0.363814 0.496310 -0.102688 -0.276622 -0.759042 -0.095367 -0.053618 -0.328048 0.826387 0.435139 0.085904 -0.741221 -0.591819 0.186943 -0.586690 -0.264742 -0.356177 -0.212603 -0.405476 -0.163544 -0.729380 -0.337446 -0.465769 -0.099734 0.156073 1.044298 0.577626 0.032743 -0.137066 0.460961 0.157379 -0.635526 0.452404 -0.278253 -0.029523 0.053538 0.265198 -0.048662 -0.035946 -0.434753 -1.046590 -0.320087 0.478507 -0.121434 0.687940 0.032325 -0.401399 0.098134 0.170746 -0.661256 -0.643804 -0.271807 0.977129 0.518556 0.631767 -0.224202 -0.827169
got 0.023322 -0.249834 0.879441 0.199196 -0.586689 -0.378059 -0.564420 -0.088406 0.017834 1.340509 -0.332099 0.377074 -2.196369 -1.294205 -0.388661 -0.024250 -0.655100 -1.208761 -0.400968 -1.057724 0.778992 -0.043812 -0.594294 -1.085435 -0.047808 -0.511733 0.129100 -0.508834 0.624471 -0.688015 -0.192676 -0.398934 -0.074890 -0.128260 0.602916 -1.023083 -0.109648 0.037937 0.988868 -0.453031 0.234227 -0.001178 -0.568566 -0.239788 -0.206554 -0.017376 1.206433 -0.048284 -0.944624 -0.586073 -0.953084 -0.504150 -0.167024 -0.336004 -0.192132 -0.149923 -0.256670 -0.043100 1.046007 -0.496805 -0.414196 0.914090 0.027239 0.302705 0.061599 1.950452 -0.105983 0.328992 -0.127232 -0.756834 -0.592164 -0.104036 -0.289753 0.107665 -0.275801 0.664923 0.818665 -0.348689 0.687543 -0.453562 -0.115305 -0.122288 -0.677797 -1.156434 -0.685435 -0.554899 0.105335 -0.613219 -0.087818 -0.140111 -0.529653 -0.446934 -0.186016 0.999924 0.150265 0.338234 -0.264841 -0.107601 -0.157455 0.011110
how 1.531008 -0.486364 1.570146 -0.673218 1.030494 -0.094974 -0.783553 0.118698 -0.314714 0.592928 -0.680860 1.305530 -0.521316 -1.357869 1.038331 0.390666 1.107316 -0.045706 0.489381 0.114481 0.339852 0.303517 -0.628988 -0.646688 -0.315696 -0.374102 0.603625 -0.565121 1.018724 0.511307 -0.222190 0.816359 -2.239552 0.184166 -0.429542 -0.260372 0.773796 0.188943 0.814682 0.024983 -0.572491 -0.291824 0.449831 1.126407 0.723840 1.414940 -0.481537 0.038306 -0.113084 0.611474 -0.136502 -0.246218 -0.435430 -0.488503 0.921615 -0.487572 -0.413136 0.212807 0.256883 0.769048 0.316066 -0.309237 0.347662 0.799376 -0.148520 0.015332 -0.184741 -0.293847 -0.604680 -1.336059 0.866966 -0.815898 0.708871 0.044061 -0.792320 0.075471 -0.117833 -0.611649 -0.079973 0.401687 -0.465757 -0.043505 -0.688060 -0.175935 0.091144 1.073238 -0.753922 0.252284 0.884010 0.711908 -0.517052 -0.918163 -0.632672 0.103510 0.142644 0.206430 -1.006880 0.475590 0.509284 -0.159715
do 1.000054 -0.357500 1.550363 -0.170264 1.184386 -0.235832 0.444256 0.343875 -0.170545 1.924202 -0.134858 0.807544 0.445135 -0.839856 1.006808 -0.670074 0.260255 -0.270047 -0.529713 0.115926 0.831050 -0.168977 -0.783173 -0.932630 -0.176636 0.312599 0.753925 -0.422697 0.984337 0.312471 -0.454992 0.057765 -1.041591 -0.169917 1.001513 -0.329791 0.839107 0.555117 1.043455 0.221173 -0.478257 -0.194465 -0.145412 -1.268189 -0.488442 1.420531 -0.115437 -0.404312 -0.272187 0.645783 -0.070517 0.133954 0.143862 -0.021056 -0.372899 -0.855471 0.390574 -0.418030 0.260857 1.334398 0.958631 0.684578 -0.313499 0.381317 -0.223087 0.206411 0.603546 0.210814 -0.496803 0.195470 0.303124 -1.068014 0.536344 -0.426216 -1.011540 0.471319 -0.734557 -0.469489 -0.094119 0.759377 -0.771912 -0.070605 -0.370517 -0.481050 -0.967547 0.182084 -0.516870 -0.003966 1.261012 0.285875 -0.975809 -0.461971 -1.111132 0.556725 -0.529825 0.500470 -0.092977 0.183501 0.747465 0.073295
love -0.004067 -0.680622 1.377492 -0.397525 -0.166446 0.498786 -0.467049 -0.198813 -0.588889 1.391205 -0.069966 0.514200 -1.305112 -0.845601 0.210124 0.294765 -0.006797 0.281587 -0.692931 -0.111319 0.983091 0.202070 0.154995 -0.121744 -0.353130 0.278647 0.955289 -0.541597 0.808499 0.131800 0.123868 0.212319 -0.849156 -0.354117 -0.049237 -0.824139 0.246835 0.113196 -0.055261 -0.213691 -0.542364 -0.009838 -0.326921 -0.596061 -0.626615 0.864201 0.739312 1.078670 -0.861550 0.139305 -0.298872 -0.363162 -0.729337 -0.279748 0.434612 -0.175131 0.109731 -0.286368 0.666997 0.309248 0.470364 0.508148 -0.223455 0.686142 0.454167 0.815255 0.546208 0.351508 -0.067932 -0.372225 -0.457531 -0.811278 0.296202 -0.096550 -0.278308 0.096859 -0.122154 -0.385471 -0.037292 -0.872662 -0.508590 0.293391 -0.107338 -0.434062 -0.053990 0.295548 -0.274353 -0.054146 0.970002 -0.272299 -0.440637 -0.292000 -0.637112 0.605174 0.808134 0.196494 -0.060533 -0.053905 0.441193 1.166529
one 0.445052 -0.804470 0.181588 -0.105951 0.622956 0.420313 0.397037 -0.042971 -1.047197 0.270961 0.134361 -0.099335 -1.033946 -0.996477 0.790261 0.120774 -0.402966 -0.088083 0.032672 -0.094362 0.206700 -0.349951 -0.217453 -1.732353 -0.084587 0.092606 -0.215686 0.017312 0.057592 0.014974 -0.337722 0.266663 -0.528604 0.123709 0.941978 0.368498 -0.198269 -0.175971 -0.685769 -0.384455 -0.286112 0.596299 -0.059581 -0.453799 -0.620198 0.490480 -0.611181 -0.593088 -0.456822 0.214405 -0.449947 0.389646 0.535184 0.239073 -0.802190 -0.483832 0.724505 0.288288 -0.108543 0.053157 -0.345399 0.155245 0.125506 -0.418358 -0.196917 0.885672 0.375518 -0.143465 -0.539785 0.852133 0.322128 -1.360989 -0.076426 -0.191352 -1.193709 1.227884 -0.869825 -0.307665 0.073202 0.106874 0.656727 -0.547122 -0.184359 -1.306579 0.280706 -0.080771 -0.190389 0.733206 0.870716 0.718179 0.054588 -0.078579 -0.879260 -0.835714 0.087006 1.252269 0.024505 0.110246 0.298499 -0.247160
no 0.543897 -0.083525 0.004596 0.182069 0.666940 0.739452 0.252654 0.380715 -0.208490 -0.189806 0.145692 0.478222 -0.429623 -0.383446 1.007210 0.421477 0.146582 0.147558 -0.523153 0.088690 0.296682 0.490423 0.322370 -1.056622 0.280536 -0.073258 0.141912 0.583499 0.903675 -0.065926 -0.691727 0.207317 -0.885774 0.175616 0.391909 -0.076301 -0.587949 0.033626 0.440013 -0.164700 -0.001924 0.473535 -0.448447 -0.783763 -0.171551 0.491338 -0.526575 -0.284789 0.034844 -0.080786 -0.315832 0.375298 0.534466 0.191293 -0.101110 -0.903224 0.691149 -0.197389 -0.049512 -0.507306 0.054833 -0.490321 -0.477591 0.324711 0.254663 0.195150 0.078171 0.422716 -0.263256 0.689470 0.326067 -0.118568 0.663316 -0.142670 -0.664161 0.359448 -0.586454 0.202342 -0.068141 0.993182 0.362302 -0.038386 -0.003788 -1.124121 -0.078439 0.640892 -0.462950 0.516791 0.688356 0.678890 -0.196734 -0.198862 -0.574265 -0.047278 -0.109365 0.896768 0.525872 0.143019 0.518592 -0.626818
time 0.609380 -0.491402 0.295209 -0.353477 0.874314 -0.555754 0.636341 0.506957 -0.863249 0.280407 1.240718 0.676618 -0.963470 -0.911244 0.230321 0.453165 -0.385803 -0.438579 0.722019 -0.874873 0.117176 -0.384072 -0.483758 -1.266228 0.562692 0.346232 0.083835 -0.058103 0.231138 -0.508254 0.147653 -0.384496 0.115503 -0.156933 0.447078 -0.095184 -0.456425 -0.182775 -0.130642 -0.430593 -0.387185 0.145934 0.266593 -0.623079 -0.266063 0.755842 0.108633 -0.960899 -0.155880 -0.529712 -0.781885 0.278546 -0.115772 -0.497976 -0.598943 -0.381077 0.002494 1.090557 0.815210 0.109356 -0.165681 -0.051958 0.809977 -0.776526 -0.092491 1.089150 0.320602 -0.441562 -0.082289 0.528567 0.580195 -1.117958 -0.019438 0.153087 -1.171992 1.010686 -0.412690 -0.562574 0.318698 -0.022512 0.249328 -0.839724 -0.196723 -0.980811 0.649344 0.041333 0.521037 -0.069650 1.218573 0.263313 -0.600019 -0.174912 -1.124358 0.129134 -0.501841 -0.271240 -0.010091 -0.456897 -0.382199 -0.742135
go 0.383811 0.141812 0.844741 -0.881241 -0.096543 0.032334 1.202991 1.012168 0.254627 1.725665 1.503618 0.237977 0.620177 -0.457184 0.711000 0.509704 -0.742564 0.551692 -0.158227 -0.467779 0.405858 0.481200 -0.212570 -0.506797 -0.180772 0.434295 0.400574 -0.702228 1.025645 1.047737 -1.054010 -0.435705 -0.453031 0.483450 -0.168195 -0.343245 -0.175743 1.186679 0.151904 0.210451 -0.711506 -0.188327 0.828657 -0.724398 -0.472724 0.982176 -0.230642 -0.144252 -0.331915 0.490840 0.405407 0.640056 -0.015294 0.883403 -0.708653 -0.729734 -0.269888 -0.532227 0.257231 0.561119 0.387120 0.575022 -0.430282 0.906074 -0.444830 0.391807 1.129867 -0.310189 0.920634 -0.096698 0.133928 -0.460526 0.701407 -0.217780 -0.206615 -0.234547 1.208290 -0.617493 0.634913 0.798367 -0.613529 -0.716164 -0.238881 -0.417722 -1.229027 -0.163687 -0.263083 -1.122548 0.196456 -0.600424 -0.683490 0.020759 -0.441799 -0.305714 0.002212 0.389153 -0.254151 0.455137 1.295034 -0.963632
he 1.469027 -0.196216 -0.522435 0.983993 0.253734 0.260437 -0.145474 0.616834 0.291564 0.182749 -0.484763 -0.052822 -1.096063 0.312886 0.933160 -0.159412 -0.463891 -0.424823 -1.225793 0.018452 0.431089 -0.543532 -1.218939 -1.486395 -0.396090 -1.425073 -0.950554 -0.497693 -0.476024 -0.197468 -1.151091 -0.000255 0.197885 0.526260 0.538978 0.322303 1.347810 -0.147933 1.045449 -0.319652 -0.478548 0.348845 0.601526 -0.569376 -0.403552 0.748266 -2.073396 -0.317450 -0.803093 -0.287318 -1.087630 0.787686 1.300733 0.448921 -0.323109 0.142224 -0.228060 0.206274 -0.190513 -0.623651 -0.822937 -0.036967 -0.722778 -0.601417 -0.733151 0.801175 -0.313553 -0.739188 0.011530 -0.482051 -0.531815 -0.460257 0.512897 0.138582 -1.153653 0.811783 -0.176583 0.318327 0.244262 1.530040 0.760652 -0.093707 1.098763 -1.427283 -1.419025 0.286387 0.003276 0.000839 1.239065 1.296686 0.135987 -0.096950 0.392094 -0.310728 -0.824726 0.082378 -0.402226 0.401671 0.283874 -1.313688
they 0.696949 -0.583242 -0.091981 0.000173 0.649183 0.234519 -0.123454 0.092853 0.121263 0.450376 -0.880649 -0.071225 0.744791 -0.005867 1.302482 -0.389805 0.112545 -0.403025 -0.843759 0.524090 0.470921 -0.836727 -0.912757 -1.523270 -0.871931 -0.222139 -0.353474 -0.017462 -0.225711 0.314502 -0.938169 -0.159738 -1.304275 0.516559 0.420516 0.368822 1.532731 0.410667 0.803772 0.394853 -0.106619 0.363710 0.664742 -1.125582 -0.408283 1.252209 -1.531739 0.662359 -0.956518 0.910497 0.045492 0.075795 1.472895 0.006730 -0.055085 0.083231 0.458323 -0.394685 -0.872895 0.078424 -0.497777 0.206515 -0.607343 -0.743384 -0.834004 -0.301210 0.401339 -0.437385 -0.588985 0.087546 0.960872 -0.289972 0.869884 -0.011147 -1.332139 1.048628 -0.443566 0.176692 -0.503235 0.952125 -0.011127 -0.030124 0.262509 -0.222731 -1.231395 0.475313 -0.669749 0.398914 1.466132 0.963185 0.204923 -0.082849 0.998253 -0.195375 -0.625155 1.088767 -0.855718 -0.177984 0.997433 -0.604409
need 0.799790 -0.188167 0.563732 -0.351208 -0.010344 -0.113809 -0.052150 0.808912 -0.080158 1.229285 0.647154 1.197566 0.872953 -1.357271 0.066881 0.732450 0.002249 -0.068218 -0.114198 -0.455340 0.452309 1.015342 -0.523148 -1.282369 -0.281675 0.707700 0.856886 -0.549221 1.429320 -0.279982 0.236914 -0.124960 -0.677924 -0.120506 0.221585 -0.747103 0.179463 0.077412 0.301143 -0.221419 -0.609524 -0.418711 -1.246916 -0.266219 0.275916 0.283190 0.860373 -0.166293 -0.453943 -0.128180 -0.080102 0.494482 -0.817727 -0.616019 -0.761856 -0.943279 0.317903 -0.157426 0.242615 0.042121 0.306683 0.699869 0.386578 1.020885 0.195396 1.106569 0.292978 0.380034 0.525386 0.411336 0.244629 -0.693967 -0.315117 0.323985 -0.753415 0.608225 0.561925 -0.241251 0.447037 -1.092026 -0.826589 -0.157530 -0.674402 -1.403933 -0.702282 0.222764 -0.771764 0.155688 -0.124275 -0.859055 -1.063388 -0.423997 -1.212718 0.041647 0.042420 1.307683 -0.183830 0.146281 0.262823 -0.175728
who 0.881692 -0.500432 0.329211 0.142996 1.133009 0.547679 0.022359 0.268236 -0.323644 -0.215595 0.258317 0.499094 -0.016644 -0.558940 1.123598 0.241480 -0.129579 0.276594 -0.183687 0.168879 -0.151260 0.279958 -0.392969 -1.078423 -0.307938 -0.049333 -0.295983 -0.211213 0.026247 0.230002 -1.277349 0.291846 -1.286807 0.652323 -0.020915 0.695544 0.526293 0.461979 -0.013729 -0.376603 0.081673 0.920568 0.301362 0.342923 -0.473883 1.165954 -1.682771 0.053195 -0.644314 0.059875 -0.286864 0.326420 0.539107 -0.038525 -0.565257 -0.502512 0.220643 -0.112842 -0.804352 0.429211 -0.272836 0.006781 -0.012680 0.162983 -0.041762 0.073199 0.184533 -0.386089 -0.273367 0.134424 0.633662 -0.818009 0.706713 -0.462217 -1.077100 1.070009 -0.432300 -0.150997 -0.150484 0.501051 0.508627 -0.373232 0.117084 -0.649875 -0.489915 1.136815 0.059326 0.699661 1.060304 0.659918 0.023562 -0.122646 -0.181757 -0.280367 -0.005202 0.922112 -0.073608 0.668307 0.522374 -0.769194
good 0.484447 0.146795 0.346448 0.842994 0.030921 -0.256496 0.579129 0.820762 -0.434612 0.242569 0.738602 0.459518 -1.306731 -0.459667 0.343696 0.573859 -0.243684 -0.402465 0.511004 0.169854 -0.040947 -0.436420 0.002043 -0.121130 0.966320 -0.139742 -0.163287 0.016590 0.230912 -0.129221 -0.077079 0.249895 -0.240076 -0.457206 0.010760 -0.273563 -0.076357 0.199616 1.150663 0.364803 -0.465419 0.003850 0.085626 -0.754853 0.210943 0.544490 -0.105551 -0.421617 0.421933 -0.134612 -0.042893 -0.074441 0.114916 -0.237803 0.278076 0.034135 -0.186008 -0.106604 0.893864 -0.527138 -0.075350 -0.504318 -0.128415 -0.384616 -0.428183 0.520815 0.054134 -0.006679 0.093170 0.345505 0.091598 -0.066501 0.118214 0.246901 -1.169921 0.465525 -0.561477 -0.461637 -0.200600 -0.196881 0.041395 -0.032394 -0.086790 -0.405243 0.567075 0.170612 -0.270598 -0.113357 0.628675 0.442259 -0.216498 0.148544 -1.024917 -0.144891 -0.906089 0.116114 0.251698 -0.223889 -0.499784 -0.613262
people 0.235641 -1.123860 0.573044 -0.074623 0.864489 0.365963 -0.436777 -0.534931 -0.196631 0.257844 -0.862391 0.244149 -0.034789 -0.783592 0.586439 -0.125058 0.303540 -0.661957 0.424094 0.398227 0.180667 -0.381568 -0.225408 -1.606827 -0.871147 -0.359333 0.019988 -0.073067 0.229770 0.126592 -0.833017 -0.186355 -1.558699 0.185433 0.511907 0.356493 0.446692 -0.067003 0.107030 0.012402 -0.218561 0.563382 0.111077 -0.537557 0.164810 0.285238 -0.303065 0.122637 -0.423686 0.669622 0.031250 -0.206215 0.642054 -0.464949 -0.032775 -0.407192 0.851496 -0.493529 -0.587146 -0.070090 -0.129312 0.430447 0.370143 -0.568712 -0.154611 0.357810 0.659898 0.074694 -0.658225 0.459006 1.479040 -0.648257 0.775566 -0.006049 -0.832623 0.762884 -0.225355 -0.232680 -0.287804 0.082036 -0.046419 -0.225283 -0.662769 -0.371849 -0.755873 0.414266 -0.860804 0.690601 0.826748 0.401387 -0.234340 -0.207398 0.388989 -0.092348 -0.214309 1.438549 -0.539414 0.107048 0.985913 0.062359
some 0.304965 0.000767 -0.322061 0.311794 -0.113383 -0.191445 -0.544899 0.604506 -0.110644 0.464373 -0.217619 0.078889 0.814405 -0.071508 0.710787 0.375840 -0.623287 -0.052949 0.267383 0.769227 0.317859 -0.029098 -0.348834 -1.111089 -0.133077 -0.425853 -0.307753 -0.594880 0.350360 -0.067266 -0.226898 -0.259473 -0.415831 0.007542 0.386720 -0.791669 -0.060818 0.421245 0.132150 -0.010507 -0.663275 -0.305699 -0.321098 0.034515 0.306755 0.159282 0.288660 -0.028363 -0.138006 0.339800 -0.408502 0.418531 0.538623 -0.150197 -0.002373 -0.105541 -0.025402 -0.534312 0.078603 -0.458393 -0.430414 -0.053833 -0.350232 0.096239 -0.933792 0.665125 0.808650 0.178764 0.193217 0.325703 0.635642 -0.096718 0.241286 0.296227 -0.671729 0.611169 0.426681 0.019837 0.390772 0.215560 -0.397961 -0.352158 -0.685018 -0.822331 -0.326831 0.136668 -0.553725 -0.289726 0.016647 0.183279 0.128136 0.154753 0.012568 -0.503826 -0.041909 0.679137 0.002458 0.279048 0.065633 -0.907749
new -0.430058 -0.448739 0.208355 -0.359737 0.124685 -0.563808 0.134306 -0.072545 -0.349516 0.481949 0.189831 -0.381861 -0.530712 0.514257 0.072335 0.387526 -0.237811 0.345659 0.778614 0.587478 -0.739939 0.415534 0.084658 -1.237563 0.167902 0.174158 -0.302540 -0.599230 -0.636302 0.438998 -0.234973 -0.152198 0.595698 -0.266167 -0.418195 0.060253 -0.483822 -0.757362 -0.747994 -0.683165 -0.494686 0.231550 -0.897625 0.369233 0.145609 -0.434224 0.185195 -0.105836 -0.027586 -0.411382 -0.474121 0.136842 -0.290972 -0.344272 -0.389051 0.166208 0.350443 0.150655 0.169969 0.128301 -0.447056 -0.641512 1.018372 -0.603572 0.107222 0.069941 0.668066 -0.280583 0.929093 0.469835 -0.027736 -0.096513 -0.456361 -0.637751 -0.376965 0.401261 -0.254248 0.795130 -0.305332 -2.272027 0.273491 -0.530053 0.442806 -0.215373 0.729466 1.185445 1.054914 0.642716 0.118459 -0.270001 0.258918 0.854853 0.141766 -0.400493 0.317671 -0.118506 -0.031559 0.602235 -0.843535 -0.348913
drink 0.340014 0.095091 -0.071733 0.371877 -0.337992 0.040907 0.418643 1.463561 -0.155550 1.240847 0.433558 0.867743 -0.785685 -1.139837 0.984403 0.481920 -0.687721 0.136384 -0.425483 0.734417 0.027138 0.230896 -0.734270 -1.040894 -0.338963 0.826067 0.152511 -0.005705 0.911734 0.229274 0.092689 0.268390 -0.620888 0.442954 1.183362 -0.498973 0.115997 1.582168 0.337135 0.208392 -0.060922 -0.118877 -0.745119 -1.126800 -0.680228 1.162890 -0.006570 -0.077106 -0.251664 0.847950 0.413061 0.479922 0.047775 0.276181 -0.951681 -0.022835 -0.050541 -0.556370 0.080363 0.230568 0.069267 0.367551 -0.504357 0.721218 -1.268596 0.880274 0.152608 0.068247 -0.122179 0.594849 0.459317 -0.484069 -0.127723 -0.232780 -0.975630 1.375349 0.016536 -0.590447 0.430741 -0.402594 -0.501521 -0.426986 -0.923719 -1.175436 -0.474041 0.037104 -0.678591 -0.115749 0.285087 -0.273627 -0.701188 -0.484978 -1.237364 -0.127238 -0.228271 1.509930 -0.129235 0.542156 0.485419 -0.606226
want 0.905541 -0.039070 0.582858 -0.841884 0.134386 -0.027072 -0.160036 0.468246 -0.202573 1.096058 0.852517 1.332975 1.135322 -1.409655 0.292294 0.793167 0.067445 -0.055601 -0.451650 -0.503009 0.790493 1.201774 -0.784517 -1.212953 -0.636260 0.537725 0.962899 -0.704751 1.702976 0.058495 -0.108658 -0.141694 -1.296195 -0.042765 0.119689 -0.424342 0.577808 0.316057 0.047443 0.028234 -0.500263 -0.410009 -0.585109 -0.440960 0.175627 0.755894 0.393377 -0.011004 -1.027475 0.233915 0.114051 0.489927 -0.500251 -0.243050 -1.124892 -1.298467 0.262621 -0.326743 -0.211685 0.799539 0.167926 1.215414 -0.159096 0.838089 0.570231 0.791434 0.463542 0.216528 1.050905 -0.121256 0.278617 -0.726186 0.370214 0.012467 -0.962714 0.722633 0.941339 -0.372862 0.674084 -0.337590 -0.918605 0.053567 -0.497383 -1.202952 -1.071105 0.446129 -0.822241 0.215744 0.259252 -1.067464 -1.172069 -0.683953 -1.080072 -0.116247 0.243818 1.613798 -0.503630 -0.036170 0.881132 -0.475509
day 0.194394 -0.197909 0.627492 -0.182502 0.779397 -0.712516 0.956479 -0.079860 -0.338198 0.678682 0.314192 0.074228 -0.638072 -0.922817 0.146913 0.347881 -0.439375 -0.559095 0.937528 -0.188413 -0.425430 -0.263508 -0.339372 -1.151984 0.635351 0.143239 -0.278712 -0.032121 -0.318549 0.185117 -0.140636 -0.717601 0.130069 -0.218844 0.473941 0.347945 -0.866900 -0.381440 0.080044 -0.315107 -0.107330 0.363505 -0.242208 -0.167956 0.011623 -0.104181 0.442943 -0.846875 0.357271 -0.343935 -0.086477 -0.266214 0.112442 -0.489484 -0.712717 -0.452425 0.268242 0.090068 0.516197 0.234082 -0.340413 -0.288350 0.954678 -0.590842 0.071395 0.923906 0.668834 -0.143666 -0.072966 0.679404 0.697417 -0.325189 -0.380958 -0.508235 -0.668420 0.652297 -0.745399 0.059603 0.118743 -0.844195 0.332352 -0.873915 -0.284370 -0.338905 0.682558 0.190067 0.324058 -0.089874 0.222663 0.021390 -0.129431 0.118897 -0.670429 0.020281 -0.591960 0.280333 0.051225 0.095908 -0.147388 -0.519163
night 0.314916 -0.110145 0.046335 -0.343863 -0.122154 -1.293596 0.734836 0.643036 -0.336493 0.736030 1.351734 -0.266406 -0.955702 -1.182197 -0.525532 0.832506 -1.572186 -0.322765 0.702454 -1.049551 0.205801 -0.851524 -0.243769 -0.855081 1.134565 0.158189 -0.347971 -0.074194 -0.294941 -0.682269 0.621605 -1.124141 0.465751 -0.252219 -0.095218 -0.972154 -1.038230 -0.393950 -0.394075 -0.776935 -0.229025 -0.151274 0.059998 -0.200871 0.068589 -0.054885 0.932448 -0.766526 -0.405792 -1.028038 -0.387855 -0.831122 -0.118446 -0.012694 -0.121999 -0.207488 -0.450900 0.359132 1.595876 -0.568610 -0.986991 -0.125916 0.074888 -0.822963 0.097606 2.531838 0.969252 -0.694357 -0.026333 0.218605 0.135737 -0.223571 -0.577678 0.483453 -0.951981 0.445408 -0.098604 -0.534896 0.605888 -0.812553 -0.295492 -1.177507 -0.062287 -0.671818 0.499154 -0.373957 0.844401 -1.320875 0.341797 -0.250094 0.002385 -0.210431 -0.464184 0.020059 -0.535343 -0.669602 0.568432 0.079240 -0.939350 -0.071717
know 1.006064 -0.593677 1.735153 -0.438129 0.826911 -0.051669 -0.419373 -0.254109 -0.271464 1.582519 0.301954 1.052029 -1.309586 -1.055836 0.459578 -0.106180 0.401481 -0.521700 -0.472280 -0.564661 0.570467 -0.306950 -0.391665 -0.379068 -0.350420 0.083596 0.947740 -0.509482 1.041401 -0.189944 -0.447487 0.703743 -1.265437 0.209710 0.707413 -0.656171 0.754708 -0.036298 0.787139 0.135366 -0.640893 0.002100 0.262971 -1.744272 -0.121581 1.086615 -0.439365 0.174934 -0.419892 0.326364 -0.201951 -0.588882 -0.142965 -0.363394 -0.035743 -0.537265 -0.219950 0.235440 1.115151 0.588277 1.064296 1.035415 -0.362297 0.585147 0.444926 1.081677 0.089688 0.171473 -0.054635 -0.421683 -0.008324 -0.997919 1.264675 -0.506020 -0.800584 0.012568 -0.157521 -0.560025 -0.130137 0.490276 0.219223 0.295530 0.150331 -0.545317 -0.938920 0.144111 -0.097270 -0.182335 1.868083 0.092822 -1.147045 -1.330021 -1.222176 1.148323 0.870174 0.277009 -0.357761 -0.035002 1.048335 0.418047
more 0.492813 0.128726 -0.407879 -0.076456 -0.000239 0.128047 0.603408 0.445596 -0.350755 0.047683 -1.190848 0.385718 -0.421701 -1.572648 1.627801 0.492799 0.556855 0.409237 -0.053514 1.576477 0.023064 0.401130 -0.091196 -0.741654 -0.159419 -0.426314 0.056396 0.275834 0.365416 1.289910 -0.482208 -0.007876 -0.840141 -0.560605 0.433647 0.394874 0.023852 0.309568 -0.168563 -0.197962 0.032196 0.541813 -0.417222 0.038746 0.006459 0.606503 0.130533 -0.136736 -0.100320 1.095040 0.541741 0.784834 0.749263 -0.233315 -0.372968 -1.014066 1.025081 -0.875081 -0.170766 -0.262949 0.575515 -0.766291 0.204280 0.615531 -0.024609 0.016880 0.175964 0.649261 -1.058222 0.813795 0.765516 0.102014 0.786406 -0.273652 -0.102331 0.278893 -0.814318 0.209058 0.281949 0.610311 -0.168904 0.044450 -0.778509 -0.725927 0.076682 1.013431 -0.423251 0.900982 -0.022096 0.776192 0.072171 -0.462697 -0.502119 -0.433566 -0.447715 1.173842 0.093877 0.762954 0.753650 -0.288280
beer -0.153980 -0.083446 -0.511342 0.630004 -0.760742 -0.445710 1.010385 0.989537 -0.036113 0.867955 0.341733 -0.119235 -1.452434 -0.448927 0.797773 0.324638 -0.623969 0.289910 -0.163041 1.365476 0.109672 -0.447096 -0.522848 -0.433131 0.661732 0.227028 -0.151128 -0.138416 0.297791 0.443477 0.294513 -0.314271 0.237779 -0.373205 0.382785 -0.498351 -0.022407 0.996838 0.335610 0.157921 -0.241165 -0.309211 -0.391792 -1.091850 -0.720631 0.675046 0.311619 -0.273405 -0.202554 0.391601 0.227749 0.706141 0.267577 0.300956 -0.412457 0.224796 0.181061 -0.755300 0.057323 -0.419793 -0.397499 -0.453103 -0.342772 -0.464593 -0.865927 0.157445 0.136335 0.313603 0.282398 1.074006 0.096565 0.029137 -0.233673 0.382495 -1.272763 0.716042 -0.450605 -0.489072 0.182449 -0.580555 -0.855757 -0.259500 -0.741371 -0.630862 -0.204364 0.148927 -0.564045 -0.276431 -0.266678 -0.223556 -0.010418 0.500027 -0.743159 -0.745668 -0.667515 0.683097 0.349315 0.236489 -0.495308 -0.590947
last 0.445302 -0.433177 1.311448 0.625370 0.520303 -0.572097 0.275180 0.277185 -1.133308 0.998861 0.328894 0.038502 -1.499447 -1.134196 -0.579929 0.712112 -1.261134 -0.511317 1.058493 -1.208208 -0.131801 -0.887811 -0.152231 -0.601938 0.604456 -1.129907 -0.763314 -0.323934 -0.343764 -0.081964 0.238718 0.101995 -0.204465 0.729361 1.342517 0.086688 -0.601755 0.236154 0.744539 -0.170700 0.836309 0.711401 0.287328 -0.169161 -0.211705 0.352007 -0.869403 -1.878781 -0.058773 -0.662718 -0.658564 -0.828272 0.491991 0.029004 0.538905 -0.231084 -0.577582 0.874948 0.719850 -1.397957 -1.559938 0.257500 -0.205226 -0.722962 -0.539840 2.547818 0.136438 -0.217692 -0.528132 0.122591 -0.918061 -0.320408 -0.615410 -0.404822 -0.728554 1.328249 0.808181 -0.595891 0.010638 0.204360 1.275585 -1.316619 -0.112760 -1.410709 0.228803 -0.925170 0.597998 -1.410910 0.914559 0.382757 -0.496763 0.492047 -0.489004 -0.120776 0.357958 -0.244087 1.100136 0.271802 -1.043183 -1.036215
, 0.152022 0.239888 0.185567 -0.339211 -0.125568 -0.230201 0.436083 0.186306 0.114945 0.853815 -0.066283 0.073585 0.253756 -0.804751 0.732239 0.437641 0.136822 -0.215281 -0.118350 0.656111 0.157847 0.027695 -0.315438 -0.685161 0.187041 0.117272 0.176928 -0.343814 0.787602 0.416147 -0.352149 0.000400 -0.515921 -0.080980 0.128981 -0.389091 0.172913 0.312281 0.408907 0.344259 -0.190699 -0.118437 -0.305484 -0.852346 0.138076 0.139063 0.412405 -0.010580 -0.036850 0.636060 0.311254 0.255387 0.324703 -0.376131 -0.366037 -0.524626 0.315279 -0.520643 0.348141 -0.098592 0.051139 0.077157 0.012500 0.226084 0.005908 0.175916 0.207064 0.291197 0.412434 0.411789 0.411527 0.246482 0.577460 -0.147663 -0.408108 0.168418 0.106571 0.136929 0.066866 -0.123072 -0.266915 -0.059286 -0.506112 -0.373692 -0.544370 0.311945 -0.669035 -0.213868 0.018879 -0.011560 -0.154817 -0.484935 -0.394719 0.104685 -0.157192 0.899091 -0.312137 -0.064328 0.464324 -0.454024
shot 0.030884 -0.053263 -0.399870 0.458456 -0.684560 -0.705791 0.646497 0.222233 -0.212500 0.640649 0.411484 -0.457184 -1.039745 -0.482822 0.350505 0.314189 -0.502708 -0.366616 -0.386255 0.557514 0.187620 -0.403502 -0.723496 -0.493890 0.507986 -0.231227 -0.221270 -0.299397 -0.142645 0.096029 -0.035543 -0.355378 0.498870 -0.349133 0.430481 -0.451757 0.229174 -0.105706 0.156864 -0.087385 -0.311613 -0.049421 -0.287380 -0.753523 -0.452865 0.259165 0.200697 -0.235985 -0.610226 -0.093235 -0.288009 0.550688 0.320149 0.079599 -0.720197 0.152311 -0.030062 -0.211734 0.249070 -0.573604 -0.466761 -0.030715 -0.168791 -0.563934 -0.215728 0.610801 -0.048656 -0.005252 0.665507 0.648366 -0.630834 0.083148 -0.453346 0.145851 -0.991608 0.659514 -0.510086 -0.106329 0.335416 -0.521136 -0.032495 0.119180 -0.095144 -0.768136 -0.116735 0.020067 0.125449 -0.151910 0.166181 -0.069801 -0.004344 0.367659 -0.639317 -0.165238 -0.165921 0.424638 0.029759 -0.048696 -0.512745 -0.634988
drinking -0.061459 -0.100047 -0.529896 1.105746 -0.614006 -0.200391 0.766768 1.175536 0.381443 0.344411 0.431601 0.658498 -2.592300 -0.813351 0.188466 0.506777 -0.185182 -0.353050 0.093644 1.202391 -0.264948 -0.165227 -0.055399 0.181359 0.573907 -0.274586 -0.022923 0.193426 0.653545 0.671157 0.126229 0.072391 -0.188028 -0.098948 -0.405827 -0.051457 0.058522 1.049584 1.504764 0.181224 0.214930 -0.090433 -0.686056 -0.906007 -0.307754 0.192673 0.361500 -0.236441 0.165248 -0.070335 0.563696 0.269311 -0.076088 0.218228 0.234264 0.654720 -0.173984 -0.622764 0.143932 -0.743813 -0.212790 -0.579427 -0.259377 -0.545050 -0.611095 0.194735 -0.537038 0.400633 0.642696 0.611742 0.117000 0.950413 -0.051906 0.234748 -1.158592 0.429364 -0.443464 -0.807792 -0.092104 -1.596965 -0.866057 0.164335 -0.965739 -0.273033 0.240379 0.318620 -0.546075 0.004317 -0.511619 -0.491238 -0.252190 0.569764 -0.645805 0.201656 -0.984826 0.771072 0.051030 0.235518 -0.459177 -0.354438
#media -0.381632 -0.112604 -0.000592 -0.348563 -0.790309 -0.616922 0.663221 0.168763 -0.209801 1.072985 0.509495 -0.832243 -0.772029 -0.341953 0.114201 0.619310 -0.108287 0.443871 0.320207 0.405083 -0.113243 -0.169708 0.154704 -0.081064 0.346244 -0.312175 -0.126499 -0.036644 -0.276227 0.843095 -0.054225 -0.284044 0.179935 -0.180530 -0.208111 -0.650786 -0.477284 -0.243891 -0.292462 -0.131428 -0.346018 -0.012866 0.050506 -0.078346 0.076785 0.429604 0.566535 -0.043110 -0.328219 -0.061638 -0.171215 0.025625 0.087175 0.800228 0.116556 -0.094809 -0.090288 -0.459500 0.418734 -0.796167 -0.233179 -0.571104 0.179617 0.006038 -0.241299 0.557160 0.354788 0.019217 0.717487 0.424422 -0.788520 0.292117 -0.213232 0.185660 -0.056487 -0.104819 -0.102245 -0.083821 0.055775 -0.827848 -0.111327 -0.147910 -0.326878 -0.053584 0.598418 0.098477 0.309882 -0.951719 -0.151419 -0.298621 0.158679 0.627559 0.001008 -0.396290 0.177729 -0.397852 -0.040331 0.154317 -0.298665 -0.430210
too 1.428554 0.117760 0.795826 -0.201958 0.570519 0.414688 -0.094474 1.288448 -0.347759 -0.317706 -0.084476 1.143132 -0.870286 -0.950433 0.733763 0.127295 -0.164366 -0.410905 0.106150 -0.090445 0.773696 -0.182430 0.037350 -0.737646 0.360688 -0.633205 -0.046817 -0.055251 0.993464 -0.061240 -0.028169 0.386574 -1.336476 0.081486 -0.716149 -0.379945 0.221398 1.057928 1.182923 0.110343 -0.149502 0.015621 0.500309 0.587914 0.031250 1.042065 0.044310 -0.338231 -0.394992 -0.012285 -0.526807 -0.235801 -0.013740 -0.207554 1.327046 0.349592 -0.311035 0.304957 0.841358 -0.297251 -0.355313 -0.611810 -0.498222 -0.289112 -0.736426 0.082679 -0.454093 -0.206803 -0.429015 -1.058011 0.572909 -0.596632 0.766648 0.239236 -0.751756 0.503336 0.006716 -0.950149 -0.015428 1.177377 -0.727839 -0.466678 -0.734872 -1.035585 -0.382769 0.291515 -0.665313 -0.114893 0.854405 1.241629 0.184996 -0.472314 -0.626096 0.683597 -0.836472 0.186056 0.181067 0.110695 -0.101482 -0.648157
lol 0.563365 0.061279 0.161012 -0.143610 -0.097908 -0.006638 -0.288487 0.390969 0.121647 0.713042 0.353499 0.365724 -0.204558 -0.489113 0.071345 0.175724 -0.166741 -0.340665 -0.238451 -0.347852 0.440819 -0.348143 0.107633 -0.275660 0.060176 -0.647929 0.145909 -0.346482 0.828233 -0.182095 -0.003975 0.367629 -0.400483 0.086423 -0.331290 -1.027983 -0.084978 0.071839 0.549821 -0.049796 -0.424004 -0.307166 0.238524 -0.703974 0.252798 0.185065 0.053533 -0.107210 -0.368184 -0.445292 -0.364445 -0.267937 -0.014206 0.077953 0.985469 0.059852 -0.502352 0.283639 0.942854 -0.941796 0.198751 0.011017 -0.603005 0.128208 -0.063379 0.965384 -0.107051 0.042268 0.223213 -0.317610 -0.026803 0.227288 0.822069 0.314204 -0.241717 -0.429889 0.464466 -0.239439 0.088708 0.713810 -0.217407 -0.188926 -0.109160 -0.634076 -0.677987 -0.180535 -0.221513 -0.662124 0.734394 0.318355 -0.025431 -0.376937 -0.280693 0.542420 0.378577 -0.309284 0.308252 -0.015676 0.041484 -0.397829
u 1.130582 0.025158 0.155914 -0.491120 0.788877 0.260801 -0.309339 -0.158583 0.203957 1.178337 -0.305175 0.543466 1.332718 -0.034998 0.866365 0.419109 0.330996 -0.106432 -1.006262 0.092347 0.234512 -0.355926 -0.893132 -0.832103 -0.599173 -0.606821 0.089170 0.118581 0.692267 -0.016584 -0.245012 0.175156 -1.241915 0.275432 0.107144 -0.366883 0.475286 0.142496 1.204456 0.786323 -0.641724 -0.406785 0.288359 -0.831018 0.313708 0.383992 -0.953397 0.649250 -0.174959 0.322546 0.502479 -0.738654 0.801083 0.459237 0.582086 -0.098341 -0.268166 -0.227462 0.078485 -0.466366 0.070461 0.034786 -1.321267 -0.324406 -0.202662 0.262423 0.523872 -0.333418 0.216315 -0.172063 0.662906 0.633012 1.185040 -0.454793 -1.186704 -0.228889 -0.376206 0.498517 -0.257242 0.953579 0.005547 0.088590 0.663104 -0.531667 -0.747252 0.150495 -0.910178 -0.443975 1.751163 0.510688 0.145799 -0.379406 0.516766 0.396413 0.003678 0.796713 -0.163142 -0.029918 1.176182 -0.725759
had 0.530633 -0.055791 0.257192 0.431781 -0.116170 -0.628539 -0.216132 0.103383 -0.276523 0.845020 0.037254 0.974568 -2.081429 -1.458225 -0.396134 0.300749 -0.330567 -0.747981 -0.445593 -0.513744 0.488900 0.119442 -1.072587 -0.866561 0.240013 -0.246144 0.012152 -0.160786 0.408386 -0.669288 0.534568 -0.211361 0.013665 0.127082 1.248707 -0.103790 0.470619 0.204575 0.775968 -0.567765 0.351116 0.197658 -0.932516 -0.467506 -0.167372 0.317531 0.223500 -0.799860 -0.657368 -0.634512 -0.346632 -0.269963 0.019933 -0.456459 -1.357331 -0.486121 0.092724 0.393853 0.353339 -0.169953 -0.536520 0.985177 0.194477 -0.265098 0.328754 1.585284 -0.123797 0.133127 -0.266854 -0.050156 -0.665324 -0.512855 -0.741795 -0.064295 -0.995016 1.201433 -0.141969 -0.409363 0.636156 -0.348241 -0.020222 -0.138829 -0.205113 -1.695495 -0.951102 -0.066020 0.192814 -0.017348 0.075999 -0.123080 -0.845709 -0.330258 -1.106944 0.621189 -0.012252 1.024912 0.326983 0.352581 -0.775730 -0.190104
@ -1.317491 -0.081988 -0.176033 -0.939528 -2.124056 -1.504646 1.325043 0.326799 -0.300180 1.383054 0.530088 -0.848455 -1.882506 -0.424441 -0.118158 0.939838 0.153680 0.946061 0.851915 2.473216 -0.500364 -0.128526 0.647300 0.632126 0.856173 -0.413243 0.047351 0.202396 -0.309371 1.636600 0.795796 -0.038194 0.473303 -0.626565 -0.754553 -1.074968 -0.410808 -0.102122 -0.520306 -0.131636 0.024998 -0.069494 -0.928695 -0.831644 0.400146 0.477004 1.417074 0.056238 -0.384024 -0.404889 0.350131 -0.380988 -0.015431 1.041098 -0.260563 0.485334 0.265608 -1.354239 0.486885 -1.133575 -0.158274 -1.048110 0.197729 -0.821339 -0.397192 -0.216215 -0.066177 0.144778 1.525635 1.254975 -1.556274 1.285362 -0.332505 0.167971 -0.057285 -0.504068 -0.683479 0.080578 -0.549100 -2.578260 -0.943519 0.200168 -0.781710 0.187795 0.491956 0.803510 0.771398 -0.932850 -0.731749 -1.136349 0.585225 1.268290 -0.375192 -0.450209 0.719055 -0.043149 0.643949 1.197332 -1.568611 -0.158035
getting 0.314580 -0.160769 0.271616 -0.194470 0.250504 0.209149 0.287571 0.330156 0.061836 0.224084 0.304483 0.258984 -1.224620 -1.341607 0.193709 -0.177151 -0.739983 -0.529292 0.498816 -0.517592 0.371234 -0.445041 0.390771 -0.915183 0.100709 -0.619128 -0.088554 -0.267395 1.034020 0.168870 -0.543634 0.024265 -0.499976 0.002513 -0.569638 -0.488425 -0.521840 0.580635 0.132345 -0.149238 -0.038186 0.116652 0.624192 -0.724774 -0.177377 -0.018546 0.419962 -0.368740 -0.236446 -0.288651 -0.289319 -0.187859 -0.109828 -0.155840 0.644927 0.058285 -0.212908 -0.065297 0.720324 -0.515089 0.240500 -0.001552 -0.007851 -0.034071 -0.453292 0.632344 -0.090116 0.142112 -0.092280 -0.089865 0.725099 -0.342895 0.804433 0.198269 -0.429884 -0.097526 0.443714 -0.827555 0.209434 0.402450 -0.408704 -0.764971 -0.963265 -0.692231 -0.656803 -0.567015 -0.342274 -0.152332 0.209529 0.332190 0.118026 -0.298002 -0.292127 0.153870 -0.011402 0.211347 0.315454 0.175700 0.351179 -0.168821
youre -0.104185 -0.173102 0.252444 -0.093652 0.185350 0.570526 0.749118 -0.194208 0.456446 1.439773 0.533794 0.175143 0.327429 -0.620464 -0.032863 0.051215 0.100608 -0.432207 -1.217594 -0.400125 0.482772 -0.551849 -0.006913 0.046792 -0.102924 -0.179874 0.172038 0.371178 1.115564 0.370929 -0.548063 -0.001474 -0.916385 0.370855 -0.299184 -0.295495 -0.155584 0.551198 1.209616 0.567636 -0.164392 0.573285 0.709897 -2.253187 -0.793301 0.198028 -0.027910 0.535091 -0.593545 -0.050008 0.704255 -0.975371 0.437816 0.994103 0.468537 0.415204 -0.238234 -0.634145 0.062780 -0.938191 0.488572 0.122298 -0.996908 -0.104961 -0.305348 0.238398 0.173499 0.270964 0.631582 0.044969 -0.186195 0.253333 1.128694 -0.099161 -0.722084 -0.309039 -0.404254 -0.508977 -0.823887 0.423146 -0.527167 -0.080360 0.045025 -0.273883 -1.528302 -0.641525 -1.182275 -0.669399 0.742870 -0.221392 0.081180 0.063752 0.021379 0.788113 -0.312226 1.043545 0.117797 -0.029183 1.246123 0.065204
cant 0.899477 -0.326659 0.854620 -1.352504 0.160365 -0.552108 -0.626582 0.119912 -0.180119 0.974927 0.009732 0.815471 2.671288 -1.677953 -0.127518 0.289872 0.603640 -0.249108 -0.485535 -0.593678 1.210618 0.210444 -0.529514 -0.811195 -0.083755 -0.211516 0.787983 -0.748967 1.380440 -0.179068 0.559650 -0.208324 -0.941222 -0.144379 0.198889 -1.005805 0.707199 -0.168809 0.338934 -0.290491 -0.359720 -0.591602 -0.167942 -0.793033 0.379777 0.854133 0.737127 -0.033652 -1.143987 -0.248693 -0.443561 -0.100962 -0.285731 -0.246049 -0.013201 -1.150921 0.052373 0.117763 0.208498 0.109542 -0.059717 0.863693 0.161950 0.256602 0.768163 1.025547 0.107370 0.353631 0.743404 -0.341746 -0.054497 -0.167997 0.239050 0.484863 -0.541660 0.365647 0.751398 -0.368831 0.281178 0.058209 -0.779409 0.280813 -0.772563 -0.823828 -0.920987 0.220813 -0.597071 -0.330495 0.567795 -0.251767 -0.842274 -0.537661 -0.544674 0.512542 0.887370 0.721027 -0.509110 -0.053105 0.131161 -0.144463
wine -0.169674 0.129962 -0.728803 0.240006 -0.831759 -0.553365 1.200987 1.011341 -0.257700 0.317630 0.532018 -0.464853 -1.682117 -0.282722 0.687483 0.394666 -0.951819 0.346547 0.265849 1.400226 -0.096180 -0.184167 -0.060497 -0.836986 0.627056 0.068584 -0.296853 -0.069847 0.291583 0.618307 0.145395 -0.445236 0.365702 -0.430561 0.040272 -0.474933 -0.188544 0.774149 -0.489308 -0.128426 -0.345459 -0.242204 -0.309743 -0.494015 -0.319608 0.330853 0.608513 -0.405273 -0.258957 0.363060 -0.041849 0.836403 0.065666 0.319995 -0.622487 0.115688 0.195750 -0.796245 0.105066 -0.181584 -0.612550 -0.409850 -0.134253 -0.561274 -0.942454 -0.091418 0.238565 0.106478 0.730346 0.983563 -0.021498 -0.181239 -0.295193 0.300197 -1.063175 0.835522 -0.202666 -0.620375 0.333822 -0.684088 -0.839049 -0.730791 -0.765586 -0.744756 -0.236242 -0.002003 -0.213219 -0.067658 -0.539392 -0.275834 0.226144 0.507752 -0.686672 -0.874200 -0.614164 0.692651 0.375111 0.447893 -0.573478 -0.719189
really 1.128926 -0.033011 0.069336 0.083214 0.861905 0.104678 -0.576303 0.497374 0.065917 0.603683 0.014379 0.945937 0.378526 -0.706638 0.563379 0.060860 -0.323363 -0.190729 -0.137020 -0.217476 0.429137 -0.187860 -0.551430 -1.142772 -0.206853 -0.519113 0.107284 -0.493003 0.978277 -0.069891 -0.208349 0.196349 -0.838612 0.197993 0.156401 -0.565311 0.509035 0.484349 0.607513 0.096897 -0.531301 -0.274249 0.203585 -0.646280 0.173891 0.502081 -0.438984 -0.315489 -0.172828 -0.015085 -0.375021 0.031044 0.129478 -0.297017 0.388711 -0.215494 -0.151583 0.269460 0.250469 -0.061934 0.097786 0.254725 -0.396494 0.077404 -0.589333 0.532846 0.335368 -0.031448 -0.191314 -0.245753 0.739723 -0.575155 0.607913 0.123277 -0.963794 0.291042 0.196553 -0.316922 0.182778 0.758339 -0.449135 -0.532211 -0.109315 -1.016455 -0.952455 0.114254 -0.453709 -0.096163 0.877540 0.520576 -0.331129 -0.520487 -0.354113 0.210151 -0.007768 0.384204 0.121619 0.206720 0.293965 -0.443472
i<92>m 0.732062 0.230884 1.205481 0.081884 0.521257 0.113216 0.633470 0.337227 0.329713 0.862913 0.288278 0.862090 -0.054969 -0.537884 -0.353048 -0.067542 -0.467098 -0.751390 -0.199421 -1.586987 0.900492 -0.141267 0.360608 -0.604559 -0.077924 -0.382833 0.230526 0.259905 0.579202 -0.397835 -0.361594 -0.546399 -0.193677 -0.337452 -0.671732 -0.139991 -0.106402 -0.133756 1.144964 -0.132091 -0.346948 0.308611 0.578749 -1.813800 0.091763 0.046339 0.184949 0.393242 -0.237301 -1.090278 -0.411707 -0.570605 0.043182 -0.296352 0.879566 0.023545 -0.388098 -0.196333 0.579598 -0.568455 0.772771 0.026655 -0.499311 -0.334865 -0.274917 0.809214 0.509898 -0.045702 -0.127397 -0.383887 0.323098 0.038894 0.575838 0.361653 -0.544459 -0.651369 -0.024329 -0.351151 -0.216092 1.158945 -0.621077 -0.230619 0.430704 -0.709936 -1.230668 -1.333280 -0.719320 -0.121221 1.028237 0.148886 0.119104 0.023739 0.061013 0.885256 -0.836066 -0.110987 0.536478 -0.078008 0.505649 -0.213744
has 0.560338 0.213330 0.352007 -0.066614 0.167539 -0.301056 0.379625 0.065266 -0.065897 0.248287 -0.296259 0.599695 -1.135183 -0.777182 -0.106487 0.175943 0.213762 -0.463772 -0.270355 -0.362230 -0.038473 0.181302 -0.479055 -0.678392 -0.058732 -0.305366 -0.186819 0.360634 -0.690020 -0.027030 -0.190243 -0.159670 0.424262 0.032796 0.242824 0.836252 0.557779 -0.314642 0.709286 -0.377143 0.658992 0.754242 -0.679028 -0.582402 0.031464 0.171328 -0.294422 -0.073908 -0.522548 -0.716534 -0.325465 -0.287591 0.534630 -0.278752 -0.788398 -0.141908 0.361217 0.276896 0.123115 -0.245300 -0.118722 -0.000658 0.565307 -0.687695 0.279046 0.331114 -0.304920 -0.012505 -0.218959 0.094958 -0.595014 0.156429 -0.403557 -0.338224 -0.449561 0.570119 -0.781527 0.463563 -0.156114 -0.521774 0.490884 0.254051 0.533891 -1.044361 -0.364699 0.138315 0.616235 0.523635 0.500771 0.365210 0.061931 -0.007480 0.106928 0.706872 -0.501554 0.434138 -0.021479 0.232570 -0.448317 -0.347320
bar -0.482566 0.043376 -0.153271 -0.460263 -0.932652 -0.800062 1.345297 0.262092 0.010196 0.854396 0.606607 -0.680775 -1.086697 -0.415451 0.084115 0.367242 -0.188635 0.251639 0.376350 0.559735 -0.033318 -0.520525 -0.138089 0.048160 0.664233 -0.051202 -0.109588 -0.156495 -0.041209 0.884631 0.145763 -0.351490 0.548412 -0.320967 -0.420044 -0.252865 -0.199132 0.213068 -0.166659 -0.058241 -0.099618 -0.242660 0.161583 -0.832679 -0.323876 0.295103 0.311051 -0.296630 -0.295636 -0.137346 0.213837 0.288893 0.002598 0.174898 -0.159984 -0.019260 -0.024556 -0.264253 0.280323 -0.388727 -0.364542 -0.465346 0.189914 -0.649124 -0.074847 0.242282 0.082258 -0.132622 0.486525 0.721674 -0.236108 0.429628 0.162661 0.069640 -0.440945 -0.363130 0.092319 -0.229938 0.111431 -0.670653 -0.419898 -0.186696 -0.242550 0.002425 -0.169611 -0.024086 0.194539 -0.662389 -0.365293 -0.378593 0.330680 0.480607 -0.176742 -0.472536 0.028603 -0.275643 0.227494 0.230241 -0.525519 -0.580959
